%YAML:1.0
---
opencv_ml_svm:
   format: 3
   svmType: C_SVC
   kernel:
      type: LINEAR
   C: 2.6699999999999999e+00
   term_criteria: { epsilon:1.1920928955078125e-07, iterations:1000 }
   var_count: 94
   class_count: 14
   class_labels: !!opencv-matrix
      rows: 14
      cols: 1
      dt: i
      data: [ 1, 2, 3, 4, 5, 6, 7, 8, 9, 10, 11, 12, 13, 14 ]
   sv_total: 91
   support_vectors:
      - [ -6.30751848e-01, 4.11805697e-02, 1.99930117e-01,
          -9.21498984e-03, -9.21498984e-03, -9.21498984e-03,
          -9.21498984e-03, -9.21498984e-03, -9.21498984e-03,
          -9.21498984e-03, -9.21498984e-03, -9.21498984e-03,
          -9.21498984e-03, -9.21498984e-03, -9.21498984e-03,
          -9.21498984e-03, -9.21498984e-03, -9.21498984e-03,
          -9.21498984e-03, -3.72487038e-01, -9.21498984e-03,
          3.79254848e-01, 2.38208652e-01, -9.21498984e-03,
          -9.21498984e-03, -9.21498984e-03, -9.21498984e-03,
          -9.21498984e-03, 1.37975231e-01, -9.21498984e-03,
          5.14162844e-03, -9.21498984e-03, -9.21498984e-03,
          -9.21498984e-03, -9.21498984e-03, -9.21498984e-03,
          1.37975231e-01, -9.21498984e-03, 5.14162844e-03,
          -9.21498984e-03, -9.21498984e-03, -9.21498984e-03,
          -9.21498984e-03, -9.21498984e-03, 1.37975231e-01,
          -9.21498984e-03, 5.14162844e-03, -9.21498984e-03,
          -9.21498984e-03, -9.21498984e-03, -9.21498984e-03,
          -9.21498984e-03, 1.37975231e-01, -9.21498984e-03,
          5.14162844e-03, -9.21498984e-03, -9.21498984e-03,
          -6.16265833e-02, -9.21498984e-03, -9.21498984e-03,
          2.80178469e-02, -9.21498984e-03, 5.14162844e-03,
          -9.21498984e-03, -9.21498984e-03, -9.21498984e-03,
          -9.21498984e-03, -9.21498984e-03, 2.80178469e-02,
          -9.21498984e-03, 5.14162844e-03, -9.21498984e-03,
          -9.21498984e-03, -9.21498984e-03, -9.21498984e-03,
          -9.21498984e-03, 1.37975231e-01, -9.21498984e-03,
          5.14162844e-03, -9.21498984e-03, -9.21498984e-03,
          -9.21498984e-03, -9.21498984e-03, -9.21498984e-03,
          1.37975231e-01, -9.21498984e-03, 5.14162844e-03,
          -7.36795887e-02, -9.21498984e-03, -9.21498984e-03,
          -9.21498984e-03, -9.21498984e-03, -9.21498984e-03,
          -9.21498984e-03 ]
      - [ -1.13480851e-01, -9.55189019e-02, 3.08971435e-01,
          -5.76124573e-03, -3.51915066e-03, -2.21200615e-01,
          -3.51915066e-03, -3.51915066e-03, -3.51915066e-03,
          -3.51915066e-03, -3.51915066e-03, -3.51915066e-03,
          -3.51915066e-03, -3.51915066e-03, -3.51915066e-03,
          -3.51915066e-03, -3.51915066e-03, -3.51915066e-03,
          -3.51915066e-03, -1.13480851e-01, -3.51915066e-03,
          3.46725166e-01, 7.19883069e-02, -3.51915066e-03,
          -3.51915066e-03, 1.42914392e-02, -3.51915066e-03,
          -3.51915066e-03, -1.17652966e-02, -3.51915066e-03,
          1.90820023e-02, -3.51915066e-03, -3.51915066e-03,
          -3.51915066e-03, -3.51915066e-03, -3.51915066e-03,
          -1.17652966e-02, -3.51915066e-03, 1.90820023e-02,
          -3.51915066e-03, -3.51915066e-03, -3.51915066e-03,
          -3.51915066e-03, -3.51915066e-03, -1.17652966e-02,
          -3.51915066e-03, 1.90820023e-02, -3.51915066e-03,
          -3.51915066e-03, -3.51915066e-03, -3.51915066e-03,
          -3.51915066e-03, -1.17652966e-02, -3.51915066e-03,
          1.90820023e-02, -3.51915066e-03, -3.51915066e-03,
          -3.51915066e-03, -3.51915066e-03, -3.51915066e-03,
          -1.17652966e-02, -3.51915066e-03, 1.90820023e-02,
          -3.51915066e-03, -3.51915066e-03, -3.51915066e-03,
          -3.51915066e-03, -3.51915066e-03, -1.17652966e-02,
          -3.51915066e-03, 1.90820023e-02, -3.51915066e-03,
          -3.51915066e-03, -3.51915066e-03, -3.51915066e-03,
          -3.51915066e-03, -1.17652966e-02, -3.51915066e-03,
          1.90820023e-02, -3.51915066e-03, -3.51915066e-03,
          -3.51915066e-03, -3.51915066e-03, -3.51915066e-03,
          -1.17652966e-02, -3.51915066e-03, 1.90820023e-02,
          -1.17652966e-02, -3.51915066e-03, -3.51915066e-03,
          -3.51915066e-03, -3.51915066e-03, -3.51915066e-03,
          -3.51915066e-03 ]
      - [ -1.84421465e-02, 7.24923844e-03, -1.64295986e-01,
          7.24923844e-03, 7.24923844e-03, 7.24923844e-03, 7.24923844e-03,
          7.24923844e-03, 7.24923844e-03, 7.24923844e-03, 7.24923844e-03,
          7.24923844e-03, -5.23376837e-02, 7.24923844e-03,
          7.24923844e-03, -5.23376837e-02, 7.24923844e-03,
          7.24923844e-03, 7.24923844e-03, -1.11924604e-01,
          7.24923844e-03, 1.88696638e-01, 8.16475302e-02, 7.24923844e-03,
          7.24923844e-03, 7.24923844e-03, 7.24923844e-03, 7.24923844e-03,
          -3.39452960e-02, 7.24923844e-03, 8.16475302e-02,
          7.24923844e-03, 7.24923844e-03, 7.24923844e-03, 7.24923844e-03,
          7.24923844e-03, -3.06462385e-02, 7.24923844e-03,
          8.16475302e-02, 7.24923844e-03, 7.24923844e-03, 7.24923844e-03,
          7.24923844e-03, 7.24923844e-03, -2.18823012e-02,
          7.24923844e-03, 8.16475302e-02, 7.24923844e-03, 7.24923844e-03,
          7.24923844e-03, 7.24923844e-03, 7.24923844e-03,
          -2.18823012e-02, 7.24923844e-03, 8.16475302e-02,
          7.24923844e-03, 7.24923844e-03, -7.12348223e-01,
          7.24923844e-03, 7.24923844e-03, -1.60570387e-02,
          7.24923844e-03, 8.16475302e-02, 7.24923844e-03, 7.24923844e-03,
          7.24923844e-03, 7.24923844e-03, 7.24923844e-03,
          -1.60570387e-02, 7.24923844e-03, 8.16475302e-02,
          7.24923844e-03, 7.24923844e-03, 7.24923844e-03, 7.24923844e-03,
          7.24923844e-03, -3.39452885e-02, 7.24923844e-03,
          8.16475302e-02, 7.24923844e-03, 7.24923844e-03, 7.24923844e-03,
          7.24923844e-03, 7.24923844e-03, -3.06462459e-02,
          7.24923844e-03, 8.16475302e-02, -4.73866053e-02,
          -5.23376837e-02, 7.24923844e-03, 7.24923844e-03,
          7.24923844e-03, 7.24923844e-03, 7.24923844e-03 ]
      - [ 1.48624659e-03, 2.71854158e-02, 2.22468488e-02,
          -1.17068551e-01, 1.48624659e-03, 1.48624659e-03,
          1.48624659e-03, -1.17068551e-01, 1.48624659e-03,
          1.48624659e-03, 1.48624659e-03, 1.48624659e-03, 1.48624659e-03,
          1.48624659e-03, 1.48624659e-03, -2.30379179e-01,
          1.48624659e-03, 1.48624659e-03, 1.48624659e-03,
          -2.30379179e-01, 1.48624659e-03, 2.22468171e-02,
          4.09719385e-02, 1.48624659e-03, 1.48624659e-03,
          -1.80179887e-02, 1.48624659e-03, -1.17068551e-01,
          9.55703035e-02, 1.48624659e-03, 1.82641558e-02, 1.48624659e-03,
          1.48624659e-03, 1.48624659e-03, 1.48624659e-03,
          -1.17068551e-01, 9.55703035e-02, 1.48624659e-03,
          1.82641558e-02, 1.48624659e-03, 1.48624659e-03, 1.48624659e-03,
          1.48624659e-03, 1.48624659e-03, 9.55703035e-02, 1.48624659e-03,
          1.87413804e-02, 1.48624659e-03, 1.48624659e-03, 1.48624659e-03,
          1.48624659e-03, 1.48624659e-03, 9.55703035e-02, 1.48624659e-03,
          1.87413804e-02, 1.48624659e-03, 1.48624659e-03,
          -5.54683246e-02, 1.48624659e-03, 1.48624659e-03,
          9.55703035e-02, 1.48624659e-03, 1.87413804e-02, 1.48624659e-03,
          1.48624659e-03, 1.48624659e-03, 1.48624659e-03,
          -1.17068551e-01, 9.55703035e-02, 1.48624659e-03,
          1.87413804e-02, 1.48624659e-03, 1.48624659e-03, 2.33351678e-01,
          1.48624659e-03, -1.17068551e-01, 9.55703035e-02,
          1.48624659e-03, 1.87413804e-02, 1.48624659e-03, 1.48624659e-03,
          1.48624659e-03, 1.48624659e-03, -1.17068551e-01,
          9.55703035e-02, 1.48624659e-03, 1.87413804e-02, 3.52165406e-03,
          1.48624659e-03, 1.48624659e-03, 1.48624659e-03, 1.48624659e-03,
          1.48624659e-03, 1.48624659e-03 ]
      - [ -4.32141423e-02, -1.83750436e-01, -5.32147169e-01,
          -4.20177588e-03, -4.20177588e-03, -4.20177588e-03,
          -4.20177588e-03, -4.20177588e-03, -4.20177588e-03,
          -4.20177588e-03, -4.20177588e-03, -4.20177588e-03,
          -4.20177588e-03, -4.20177588e-03, -4.20177588e-03,
          -4.20177588e-03, -4.20177588e-03, -4.20177588e-03,
          -4.20177588e-03, -4.20177588e-03, -4.20177588e-03,
          5.11839092e-01, 6.85210109e-01, -4.20177588e-03,
          -4.20177588e-03, 3.48105878e-02, -4.20177588e-03,
          -4.20177588e-03, -1.01540294e-02, -4.20177588e-03,
          -1.03794569e-02, -4.20177588e-03, -4.20177588e-03,
          -4.20177588e-03, -4.20177588e-03, -4.20177588e-03,
          -1.01540294e-02, -4.20177588e-03, -1.03794569e-02,
          -4.20177588e-03, -4.20177588e-03, -4.20177588e-03,
          -4.20177588e-03, -4.20177588e-03, -1.01540294e-02,
          -4.20177588e-03, -1.03794569e-02, -4.20177588e-03,
          -4.20177588e-03, -4.20177588e-03, -4.20177588e-03,
          -4.20177588e-03, -1.01540294e-02, -4.20177588e-03,
          -1.03794569e-02, -4.20177588e-03, -4.20177588e-03,
          -4.20177588e-03, -4.20177588e-03, -4.20177588e-03,
          -1.01540294e-02, -4.20177588e-03, -1.03794569e-02,
          -4.20177588e-03, -4.20177588e-03, -4.20177588e-03,
          -4.20177588e-03, -4.20177588e-03, -1.01540294e-02,
          -4.20177588e-03, -1.03794569e-02, -4.20177588e-03,
          -4.20177588e-03, -4.20177588e-03, -4.20177588e-03,
          -4.20177588e-03, -1.01540294e-02, -4.20177588e-03,
          -1.03794569e-02, -4.20177588e-03, -4.20177588e-03,
          -4.20177588e-03, -4.20177588e-03, -4.20177588e-03,
          -1.01540294e-02, -4.20177588e-03, -1.03794569e-02,
          -1.01540294e-02, -4.20177588e-03, -4.20177588e-03,
          -4.20177588e-03, -4.20177588e-03, -4.20177588e-03,
          -4.20177588e-03 ]
      - [ -9.41087127e-01, 1.40937967e-02, 1.57778244e-02,
          7.41768396e-03, 7.41768396e-03, 7.41768396e-03, 7.41768396e-03,
          7.41768396e-03, 7.41768396e-03, 7.41768396e-03, 7.41768396e-03,
          7.41768396e-03, 7.41768396e-03, 7.41768396e-03, 7.41768396e-03,
          7.41768396e-03, 7.41768396e-03, 7.41768396e-03, 7.41768396e-03,
          -3.41347326e-03, -8.72304499e-01, 1.69993993e-02,
          1.68298744e-02, 7.41768396e-03, 7.41768396e-03,
          -2.52773352e-02, 7.41768396e-03, 7.41768396e-03,
          5.43819368e-02, 7.41768396e-03, 1.07371313e-02, 7.41768396e-03,
          7.41768396e-03, 7.41768396e-03, 7.41768396e-03, 7.41768396e-03,
          5.43819368e-02, 7.41768396e-03, 1.07371313e-02, 7.41768396e-03,
          7.41768396e-03, 7.41768396e-03, 7.41768396e-03, 7.41768396e-03,
          5.43819368e-02, 7.41768396e-03, 1.35651268e-02, 7.41768396e-03,
          7.41768396e-03, 7.41768396e-03, 7.41768396e-03, 7.41768396e-03,
          5.43819368e-02, 7.41768396e-03, 1.35651268e-02, 7.41768396e-03,
          7.41768396e-03, -2.62437183e-02, 7.41768396e-03,
          7.41768396e-03, 5.43819368e-02, 7.41768396e-03, 1.35651268e-02,
          7.41768396e-03, 7.41768396e-03, 7.15337753e-01, 7.41768396e-03,
          7.41768396e-03, 5.43819368e-02, 7.41768396e-03, 1.35651268e-02,
          7.41768396e-03, 7.41768396e-03, 7.41768396e-03, 7.41768396e-03,
          7.41768396e-03, 5.43819368e-02, 7.41768396e-03, 1.35651268e-02,
          7.41768396e-03, 7.41768396e-03, 7.41768396e-03, 7.41768396e-03,
          7.41768396e-03, 5.43819368e-02, 7.41768396e-03, 1.35651268e-02,
          5.43819368e-02, 7.41768396e-03, 7.41768396e-03, 7.41768396e-03,
          7.41768396e-03, 7.41768396e-03, 7.41768396e-03 ]
      - [ -4.34771925e-01, -7.72013366e-01, -3.56011391e-01,
          -1.09709147e-02, -1.09709147e-02, -1.09709147e-02,
          -1.09709147e-02, -1.09709147e-02, -1.09709147e-02,
          -1.09709147e-02, -1.09709147e-02, -1.09709147e-02,
          -1.09709147e-02, -1.09709147e-02, -1.09709147e-02,
          -1.09709147e-02, -1.09709147e-02, -1.09709147e-02,
          -1.09709147e-02, -1.09709147e-02, -1.09709147e-02,
          8.63886595e-01, -1.09709147e-02, -1.09709147e-02,
          -1.09709147e-02, 7.55256355e-01, -1.09709147e-02,
          -1.09709147e-02, 5.00635318e-02, -1.09709147e-02,
          3.23375203e-02, -1.09709147e-02, -1.09709147e-02,
          -1.09709147e-02, -1.09709147e-02, -1.09709147e-02,
          5.00635318e-02, -1.09709147e-02, 3.23375203e-02,
          -1.09709147e-02, -1.09709147e-02, -1.09709147e-02,
          -1.09709147e-02, -1.09709147e-02, 5.00635318e-02,
          -1.09709147e-02, 3.23375203e-02, -1.09709147e-02,
          -1.09709147e-02, -1.09709147e-02, -1.09709147e-02,
          -1.09709147e-02, 5.00635318e-02, -1.09709147e-02,
          3.23375203e-02, -1.09709147e-02, -1.09709147e-02,
          1.33170346e-02, -1.09709147e-02, -1.09709147e-02,
          5.00635318e-02, -1.09709147e-02, 3.23375203e-02,
          -1.09709147e-02, -1.09709147e-02, -1.09709147e-02,
          -1.09709147e-02, -1.09709147e-02, 5.00635318e-02,
          -1.09709147e-02, 3.23375203e-02, -1.09709147e-02,
          -1.09709147e-02, -1.09709147e-02, -1.09709147e-02,
          -1.09709147e-02, 5.00635318e-02, -1.09709147e-02,
          3.23375203e-02, -1.09709147e-02, -1.09709147e-02,
          -1.09709147e-02, -1.09709147e-02, -1.09709147e-02,
          5.00635318e-02, -1.09709147e-02, 3.23375203e-02,
          5.00635318e-02, -1.09709147e-02, -1.09709147e-02,
          -1.09709147e-02, -1.09709147e-02, -1.09709147e-02,
          -1.09709147e-02 ]
      - [ -5.22576785e-03, 1.12045684e-03, -3.63298953e-01,
          -5.22576785e-03, -5.22576785e-03, -5.22576785e-03,
          -5.22576785e-03, -5.22576785e-03, -5.22576785e-03,
          -5.22576785e-03, -5.22576785e-03, -5.22576785e-03,
          -5.22576785e-03, -5.22576785e-03, -5.22576785e-03,
          -5.22576785e-03, -5.22576785e-03, -5.22576785e-03,
          -5.22576785e-03, -5.22576785e-03, -5.22576785e-03,
          8.98326398e-04, 1.23449254e+00, -5.22576785e-03,
          -5.22576785e-03, -1.69199437e-03, -5.22576785e-03,
          -5.22576785e-03, 1.14402026e-01, -5.22576785e-03,
          -4.46713082e-02, -5.22576785e-03, -5.22576785e-03,
          -5.22576785e-03, -5.22576785e-03, -5.22576785e-03,
          1.14402026e-01, -5.22576785e-03, -4.46713082e-02,
          -5.22576785e-03, -5.22576785e-03, -5.22576785e-03,
          -5.22576785e-03, -5.22576785e-03, 1.14402026e-01,
          -5.22576785e-03, -4.46713082e-02, -5.22576785e-03,
          -5.22576785e-03, -5.22576785e-03, -5.22576785e-03,
          -5.22576785e-03, 1.14402026e-01, -5.22576785e-03,
          -4.46713082e-02, -5.22576785e-03, -5.22576785e-03,
          -9.05075610e-01, -5.22576785e-03, -5.22576785e-03,
          1.14402026e-01, -5.22576785e-03, -4.46713082e-02,
          -5.22576785e-03, -5.22576785e-03, -5.22576785e-03,
          -5.22576785e-03, -5.22576785e-03, 1.14402026e-01,
          -5.22576785e-03, -4.46713082e-02, -5.22576785e-03,
          -5.22576785e-03, -5.22576785e-03, -5.22576785e-03,
          -5.22576785e-03, 1.14402026e-01, -5.22576785e-03,
          -4.46713082e-02, -5.22576785e-03, -5.22576785e-03,
          -5.22576785e-03, -5.22576785e-03, -5.22576785e-03,
          1.14402026e-01, -5.22576785e-03, -4.46713082e-02,
          -1.53260157e-01, -5.22576785e-03, -5.22576785e-03,
          -5.22576785e-03, -5.22576785e-03, -5.22576785e-03,
          -5.22576785e-03 ]
      - [ 4.18911455e-03, 1.42787825e-02, 1.27903625e-01,
          -2.25089043e-01, 4.18911455e-03, 4.18911455e-03,
          4.18911455e-03, 4.18911455e-03, 4.18911455e-03, 4.18911455e-03,
          4.18911455e-03, 4.18911455e-03, 4.18911455e-03, 4.18911455e-03,
          4.18911455e-03, 4.18911455e-03, 4.18911455e-03, 4.18911455e-03,
          4.18911455e-03, -7.14114845e-01, 4.18911455e-03,
          1.27903521e-01, 3.73736918e-02, 4.18911455e-03, 4.18911455e-03,
          -1.24031743e-02, 4.18911455e-03, 4.18911455e-03,
          2.15606429e-02, 4.18911455e-03, 2.07814034e-02, 4.18911455e-03,
          4.18911455e-03, 4.18911455e-03, 4.18911455e-03, 4.18911455e-03,
          2.15606429e-02, 4.18911455e-03, 2.07814034e-02, 4.18911455e-03,
          4.18911455e-03, 4.18911455e-03, 4.18911455e-03, 4.18911455e-03,
          2.15606429e-02, 4.18911455e-03, 2.07814034e-02, 4.18911455e-03,
          4.18911455e-03, 4.18911455e-03, 4.18911455e-03, 4.18911455e-03,
          2.15606429e-02, 4.18911455e-03, 2.07814034e-02, 4.18911455e-03,
          4.18911455e-03, -2.29101833e-02, 4.18911455e-03,
          4.18911455e-03, 2.15606429e-02, 4.18911455e-03, 2.07814034e-02,
          4.18911455e-03, 4.18911455e-03, 4.18911455e-03, 4.18911455e-03,
          4.18911455e-03, 2.15606429e-02, 4.18911455e-03, 2.07814034e-02,
          4.18911455e-03, 4.18911455e-03, 1.30449152e-02, 4.18911455e-03,
          4.18911455e-03, 2.15606429e-02, 4.18911455e-03, 2.07814034e-02,
          4.18911455e-03, 4.18911455e-03, 1.30449748e-02, 4.18911455e-03,
          4.18911455e-03, 2.15606429e-02, 4.18911455e-03, 2.07814034e-02,
          2.15606429e-02, 4.18911455e-03, 4.18911455e-03, 4.18911455e-03,
          4.18911455e-03, 4.18911455e-03, 4.18911455e-03 ]
      - [ -1.73441228e-02, -2.88492113e-01, 8.24779272e-02,
          -1.73441228e-02, -1.73441228e-02, -1.73441228e-02,
          -1.73441228e-02, -1.73441228e-02, -1.73441228e-02,
          -1.73441228e-02, -1.73441228e-02, -1.73441228e-02,
          -1.73441228e-02, -1.73441228e-02, -1.73441228e-02,
          -1.73441228e-02, -1.73441228e-02, -1.73441228e-02,
          -1.73441228e-02, -1.73441228e-02, -1.73441228e-02,
          2.21207172e-01, -1.73441228e-02, -1.73441228e-02,
          -1.73441228e-02, -1.73441228e-02, -1.73441228e-02,
          -1.73441228e-02, 9.60856825e-02, -1.73441228e-02,
          7.48486668e-02, -1.73441228e-02, -1.73441228e-02,
          -1.73441228e-02, -1.73441228e-02, -1.73441228e-02,
          9.60856825e-02, -1.73441228e-02, 7.48486668e-02,
          -1.73441228e-02, -1.73441228e-02, -1.73441228e-02,
          -1.73441228e-02, -1.73441228e-02, 9.60856825e-02,
          -1.73441228e-02, 7.48486668e-02, -1.73441228e-02,
          -1.73441228e-02, -1.73441228e-02, -1.73441228e-02,
          -1.73441228e-02, 9.60856825e-02, -1.73441228e-02,
          7.48486668e-02, -1.73441228e-02, -1.73441228e-02,
          -4.03285259e-03, -1.73441228e-02, -1.73441228e-02,
          9.60856825e-02, -1.73441228e-02, 7.48486668e-02,
          -1.73441228e-02, -1.73441228e-02, -1.73441228e-02,
          -1.73441228e-02, -1.73441228e-02, 9.60856825e-02,
          -1.73441228e-02, 7.48486668e-02, -1.73441228e-02,
          -1.73441228e-02, -1.73441228e-02, -1.73441228e-02,
          -1.73441228e-02, 9.60856825e-02, -1.73441228e-02,
          7.48486668e-02, -1.73441228e-02, -1.73441228e-02,
          -1.73441228e-02, -1.73441228e-02, -1.73441228e-02,
          9.60856825e-02, -1.73441228e-02, 7.48486668e-02,
          -1.12513870e-01, -1.73441228e-02, -1.73441228e-02,
          -1.73441228e-02, -1.73441228e-02, -1.73441228e-02,
          -1.73441228e-02 ]
      - [ .Nan, .Nan, .Nan, .Nan, .Nan, .Nan, .Nan, .Nan, .Nan, .Nan,
          .Nan, .Nan, .Nan, .Nan, .Nan, .Nan, .Nan, .Nan, .Nan, .Nan,
          .Nan, .Nan, .Nan, .Nan, .Nan, .Nan, .Nan, .Nan, .Nan, .Nan,
          .Nan, .Nan, .Nan, .Nan, .Nan, .Nan, .Nan, .Nan, .Nan, .Nan,
          .Nan, .Nan, .Nan, .Nan, .Nan, .Nan, .Nan, .Nan, .Nan, .Nan,
          .Nan, .Nan, .Nan, .Nan, .Nan, .Nan, .Nan, .Nan, .Nan, .Nan,
          .Nan, .Nan, .Nan, .Nan, .Nan, .Nan, .Nan, .Nan, .Nan, .Nan,
          .Nan, .Nan, .Nan, .Nan, .Nan, .Nan, .Nan, .Nan, .Nan, .Nan,
          .Nan, .Nan, .Nan, .Nan, .Nan, .Nan, .Nan, 1.44323260e-02,
          4.90114326e-03, 4.90114326e-03, 4.90114326e-03, 4.90114326e-03,
          4.90114326e-03, 4.90114326e-03 ]
      - [ -6.55382991e-01, -1.49587587e-01, -1.70709327e-01,
          1.76006705e-02, 1.76006705e-02, 1.76006705e-02, 1.76006705e-02,
          1.76006705e-02, 1.76006705e-02, 1.76006705e-02, 1.76006705e-02,
          1.76006705e-02, 1.76006705e-02, 1.76006705e-02, 1.76006705e-02,
          1.76006705e-02, 1.76006705e-02, 1.76006705e-02, 1.76006705e-02,
          1.76006705e-02, 1.76006705e-02, 3.15566331e-01,
          -1.65931538e-01, 1.76006705e-02, 1.76006705e-02,
          4.99038994e-02, 1.76006705e-02, 1.76006705e-02, 6.12816308e-04,
          1.76006705e-02, -3.63690639e-03, 1.76006705e-02,
          1.76006705e-02, 1.76006705e-02, 1.76006705e-02, 1.76006705e-02,
          6.12816308e-04, 1.76006705e-02, -3.63690639e-03,
          1.76006705e-02, 1.76006705e-02, 1.76006705e-02, 1.76006705e-02,
          1.76006705e-02, 6.12816308e-04, 1.76006705e-02,
          -3.63690639e-03, 1.76006705e-02, 1.76006705e-02,
          1.76006705e-02, 1.76006705e-02, 1.76006705e-02, 6.12816308e-04,
          1.76006705e-02, -3.63690639e-03, 1.76006705e-02,
          1.76006705e-02, -7.89680660e-01, 1.76006705e-02,
          1.76006705e-02, 6.12816308e-04, 1.76006705e-02,
          -3.63690639e-03, 1.76006705e-02, 1.76006705e-02,
          1.76006705e-02, 1.76006705e-02, 1.76006705e-02, 6.12816308e-04,
          1.76006705e-02, -3.63690639e-03, 1.76006705e-02,
          1.76006705e-02, 1.76006705e-02, 1.76006705e-02, 1.76006705e-02,
          6.12816308e-04, 1.76006705e-02, -3.63690639e-03,
          1.76006705e-02, 1.76006705e-02, 3.74956787e-01, 1.76006705e-02,
          1.76006705e-02, 6.12816308e-04, 1.76006705e-02,
          -3.63690639e-03, 6.12816308e-04, 1.76006705e-02,
          1.76006705e-02, 1.76006705e-02, 1.76006705e-02, 1.76006705e-02,
          1.76006705e-02 ]
      - [ -4.40781593e-01, 5.93619363e-04, 2.10369334e-01,
          5.93619363e-04, 5.93619363e-04, 5.93619363e-04, 5.93619363e-04,
          5.93619363e-04, 5.93619363e-04, 5.93619363e-04, 5.93619363e-04,
          5.93619363e-04, 5.93619363e-04, 5.93619363e-04, 5.93619363e-04,
          5.93619363e-04, 5.93619363e-04, 5.93619363e-04, 5.93619363e-04,
          5.93619363e-04, -2.24110946e-01, 4.28178936e-01,
          -7.44029088e-03, 5.93619363e-04, 5.93619363e-04,
          -1.64786689e-02, 5.93619363e-04, 5.93619363e-04,
          4.77426016e-04, 5.93619363e-04, 4.77426016e-04, 5.93619363e-04,
          5.93619363e-04, 5.93619363e-04, 5.93619363e-04, 5.93619363e-04,
          4.77426016e-04, 5.93619363e-04, 4.77426016e-04, 5.93619363e-04,
          5.93619363e-04, 5.93619363e-04, 5.93619363e-04, 5.93619363e-04,
          4.77426016e-04, 5.93619363e-04, 4.77426016e-04, 5.93619363e-04,
          5.93619363e-04, 5.93619363e-04, 5.93619363e-04, 5.93619363e-04,
          4.77426016e-04, 5.93619363e-04, 4.77426016e-04, 5.93619363e-04,
          5.93619363e-04, 5.93619363e-04, 5.93619363e-04, 5.93619363e-04,
          4.77426016e-04, 5.93619363e-04, 4.77426016e-04, 5.93619363e-04,
          5.93619363e-04, 5.93619363e-04, 5.93619363e-04, 5.93619363e-04,
          4.77426016e-04, 5.93619363e-04, 4.77426016e-04, 5.93619363e-04,
          5.93619363e-04, 5.93619363e-04, 5.93619363e-04, 5.93619363e-04,
          4.77426016e-04, 5.93619363e-04, 4.77426016e-04, 5.93619363e-04,
          5.93619363e-04, 5.93619363e-04, 5.93619363e-04, 5.93619363e-04,
          4.77426016e-04, 5.93619363e-04, 4.77426016e-04, 4.77426016e-04,
          5.93619363e-04, 5.93619363e-04, 5.93619363e-04, 5.93619363e-04,
          5.93619363e-04, 5.93619363e-04 ]
      - [ -3.57604772e-02, -6.39614463e-01, 3.39985728e-01,
          6.45529712e-03, 6.45529712e-03, -3.57607752e-02,
          6.45529712e-03, 6.45529712e-03, 6.45529712e-03, 6.45529712e-03,
          6.45529712e-03, 6.45529712e-03, 6.45529712e-03, 6.45529712e-03,
          6.45529712e-03, 6.45529712e-03, 6.45529712e-03, 6.45529712e-03,
          6.45529712e-03, 6.92633450e-01, 6.45529712e-03, 6.45529712e-03,
          6.45529712e-03, 6.45529712e-03, 6.45529712e-03, 6.45529712e-03,
          6.45529712e-03, 6.45529712e-03, 1.69508662e-02, 6.45529712e-03,
          -1.17352821e-01, 6.45529712e-03, 6.45529712e-03,
          6.45529712e-03, 6.45529712e-03, 6.45529712e-03, 1.69508662e-02,
          6.45529712e-03, -1.17352821e-01, 6.45529712e-03,
          6.45529712e-03, 6.45529712e-03, 6.45529712e-03, 6.45529712e-03,
          1.69508662e-02, 6.45529712e-03, -1.17352821e-01,
          6.45529712e-03, 6.45529712e-03, 6.45529712e-03, 6.45529712e-03,
          6.45529712e-03, 1.69508662e-02, 6.45529712e-03,
          -1.17352821e-01, 6.45529712e-03, 6.45529712e-03,
          6.45529712e-03, 6.45529712e-03, 6.45529712e-03, 1.69508662e-02,
          6.45529712e-03, -1.17352821e-01, 6.45529712e-03,
          6.45529712e-03, 6.45529712e-03, 6.45529712e-03, 6.45529712e-03,
          1.69508662e-02, 6.45529712e-03, -1.17352821e-01,
          6.45529712e-03, 6.45529712e-03, 6.45529712e-03, 6.45529712e-03,
          6.45529712e-03, 1.69508662e-02, 6.45529712e-03,
          -1.17352821e-01, 6.45529712e-03, 6.45529712e-03,
          6.45529712e-03, 6.45529712e-03, 6.45529712e-03, 1.69508662e-02,
          6.45529712e-03, -1.17352821e-01, 1.69508662e-02,
          6.45529712e-03, 6.45529712e-03, 6.45529712e-03, 6.45529712e-03,
          6.45529712e-03, 6.45529712e-03 ]
      - [ 1.26409963e-01, 1.05128467e-01, -2.18156174e-01,
          2.27258960e-03, 2.27258960e-03, 2.27258960e-03, 2.27258960e-03,
          2.27258960e-03, 2.27258960e-03, 2.27258960e-03, 2.27258960e-03,
          2.27258960e-03, -2.54586041e-01, 2.27258960e-03,
          2.27258960e-03, -2.54586041e-01, 2.27258960e-03,
          2.27258960e-03, 2.27258960e-03, 2.08233401e-01, 2.27258960e-03,
          2.27258960e-03, 2.27258960e-03, 2.27258960e-03, 2.27258960e-03,
          -3.06881056e-03, 2.27258960e-03, 2.27258960e-03,
          -3.75175774e-02, 2.27258960e-03, 9.26364809e-02,
          2.27258960e-03, 2.27258960e-03, 2.27258960e-03, 2.27258960e-03,
          2.27258960e-03, -3.38727944e-02, 2.27258960e-03,
          9.26364809e-02, 2.27258960e-03, 2.27258960e-03, 2.27258960e-03,
          2.27258960e-03, 2.27258960e-03, -1.45016434e-02,
          2.27258960e-03, 9.26364809e-02, 2.27258960e-03, 2.27258960e-03,
          2.27258960e-03, 2.27258960e-03, 2.27258960e-03,
          -7.26368845e-01, 2.27258960e-03, 9.26364809e-02,
          2.27258960e-03, 2.27258960e-03, 2.27258960e-03, 2.27258960e-03,
          2.27258960e-03, 2.55104303e-01, 2.27258960e-03, 9.26364809e-02,
          2.27258960e-03, 2.27258960e-03, 2.27258960e-03, 2.27258960e-03,
          2.27258960e-03, 2.55104303e-01, 2.27258960e-03, 9.26364809e-02,
          2.27258960e-03, 2.27258960e-03, 2.27258960e-03, 2.27258960e-03,
          2.27258960e-03, -3.56948487e-02, 2.27258960e-03,
          9.26364809e-02, 2.27258960e-03, 2.27258960e-03, 2.27258960e-03,
          2.27258960e-03, 2.27258960e-03, -3.56948487e-02,
          2.27258960e-03, 9.26364809e-02, 2.07525790e-02,
          -2.54586041e-01, 2.27258960e-03, 2.27258960e-03,
          2.27258960e-03, 2.27258960e-03, 2.27258960e-03 ]
      - [ 1.24525219e-01, -2.08979030e-03, -1.49460752e-02,
          -1.11815378e-01, 2.14168779e-03, 2.14168779e-03,
          2.14168779e-03, -1.11815378e-01, 2.14168779e-03,
          2.14168779e-03, 2.14168779e-03, 2.14168779e-03, 2.14168779e-03,
          2.14168779e-03, 2.14168779e-03, -1.21142730e-01,
          2.14168779e-03, 2.14168779e-03, 2.14168779e-03, 1.52900768e-02,
          2.14168779e-03, -2.44427145e-01, 2.14168779e-03,
          2.14168779e-03, 2.14168779e-03, 2.36456213e-03, 2.14168779e-03,
          -1.11815378e-01, 2.37165373e-02, 2.14168779e-03,
          1.05681485e-02, 2.14168779e-03, 2.14168779e-03, 2.14168779e-03,
          2.14168779e-03, -1.11815378e-01, 2.37165373e-02,
          2.14168779e-03, 1.05681485e-02, 2.14168779e-03, 2.14168779e-03,
          2.14168779e-03, 2.14168779e-03, 2.14168779e-03, 2.37165373e-02,
          2.14168779e-03, 1.05681485e-02, 2.14168779e-03, 2.14168779e-03,
          2.14168779e-03, 2.14168779e-03, 2.14168779e-03, 2.37165373e-02,
          2.14168779e-03, 1.05681485e-02, 2.14168779e-03, 2.14168779e-03,
          2.14168779e-03, 2.14168779e-03, 2.14168779e-03, 2.65666068e-01,
          2.14168779e-03, 1.05681485e-02, 2.14168779e-03, 2.14168779e-03,
          2.14168779e-03, 2.14168779e-03, -1.11815378e-01,
          2.65666068e-01, 2.14168779e-03, 1.05681485e-02, 2.14168779e-03,
          2.14168779e-03, 1.25426114e-01, 2.14168779e-03,
          -1.11815378e-01, 2.37165373e-02, 2.14168779e-03,
          1.05681485e-02, 2.14168779e-03, 2.14168779e-03, 2.14168779e-03,
          2.14168779e-03, -1.11815378e-01, 2.37165373e-02,
          2.14168779e-03, 1.05681485e-02, 6.74620504e-03, 2.14168779e-03,
          2.14168779e-03, 2.14168779e-03, 2.14168779e-03, 2.14168779e-03,
          2.14168779e-03 ]
      - [ 2.78305441e-01, -9.56187248e-01, -9.60250258e-01,
          2.01220978e-02, 2.01220978e-02, 2.01220978e-02, 2.01220978e-02,
          2.01220978e-02, 2.01220978e-02, 2.01220978e-02, 2.01220978e-02,
          2.01220978e-02, 2.01220978e-02, 2.01220978e-02, 2.01220978e-02,
          2.01220978e-02, 2.01220978e-02, 2.01220978e-02, 2.01220978e-02,
          6.33072734e-01, 2.01220978e-02, 2.01220978e-02, 2.01220978e-02,
          2.01220978e-02, 2.01220978e-02, 1.81594312e-01, 2.01220978e-02,
          2.01220978e-02, -1.54353589e-01, 2.01220978e-02,
          4.97970544e-03, 2.01220978e-02, 2.01220978e-02, 2.01220978e-02,
          2.01220978e-02, 2.01220978e-02, -1.54353589e-01,
          2.01220978e-02, 4.97970544e-03, 2.01220978e-02, 2.01220978e-02,
          2.01220978e-02, 2.01220978e-02, 2.01220978e-02,
          -1.54353589e-01, 2.01220978e-02, 4.97970544e-03,
          2.01220978e-02, 2.01220978e-02, 2.01220978e-02, 2.01220978e-02,
          2.01220978e-02, -4.27679330e-01, 2.01220978e-02,
          4.97970544e-03, 2.01220978e-02, 2.01220978e-02, 1.81595773e-01,
          2.01220978e-02, 2.01220978e-02, 1.14962004e-01, 2.01220978e-02,
          4.97970544e-03, 2.01220978e-02, 2.01220978e-02, 2.01220978e-02,
          2.01220978e-02, 2.01220978e-02, 1.14962004e-01, 2.01220978e-02,
          4.97970544e-03, 2.01220978e-02, 2.01220978e-02, 2.01220978e-02,
          2.01220978e-02, 2.01220978e-02, -1.54353589e-01,
          2.01220978e-02, 4.97970544e-03, 2.01220978e-02, 2.01220978e-02,
          2.01220978e-02, 2.01220978e-02, 2.01220978e-02,
          -1.54353589e-01, 2.01220978e-02, 4.97970544e-03,
          1.42886683e-01, 2.01220978e-02, 2.01220978e-02, 2.01220978e-02,
          2.01220978e-02, 2.01220978e-02, 2.01220978e-02 ]
      - [ 9.86387432e-02, -7.72584900e-02, 1.66645542e-01,
          5.50730573e-03, 5.50730573e-03, 5.50730573e-03, 5.50730573e-03,
          5.50730573e-03, 5.50730573e-03, 5.50730573e-03, 5.50730573e-03,
          5.50730573e-03, 5.50730573e-03, 5.50730573e-03, 5.50730573e-03,
          5.50730573e-03, 5.50730573e-03, 5.50730573e-03, 5.50730573e-03,
          1.55952364e-01, -1.26385212e-01, -3.55900556e-01,
          -2.52266943e-01, 5.50730573e-03, 5.50730573e-03,
          5.70109338e-02, 5.50730573e-03, 5.50730573e-03, 2.60300618e-02,
          5.50730573e-03, -3.96250561e-02, 5.50730573e-03,
          5.50730573e-03, 5.50730573e-03, 5.50730573e-03, 5.50730573e-03,
          2.60300618e-02, 5.50730573e-03, -3.96250561e-02,
          5.50730573e-03, 5.50730573e-03, 5.50730573e-03, 5.50730573e-03,
          5.50730573e-03, 2.60300618e-02, 5.50730573e-03,
          -3.96250561e-02, 5.50730573e-03, 5.50730573e-03,
          5.50730573e-03, 5.50730573e-03, 5.50730573e-03, 2.60300618e-02,
          5.50730573e-03, -3.96250561e-02, 5.50730573e-03,
          5.50730573e-03, 2.29840670e-02, 5.50730573e-03, 5.50730573e-03,
          2.60300618e-02, 5.50730573e-03, -3.96250561e-02,
          5.50730573e-03, 5.50730573e-03, 2.43199226e-02, 5.50730573e-03,
          5.50730573e-03, 2.60300618e-02, 5.50730573e-03,
          -3.96250561e-02, 5.50730573e-03, 5.50730573e-03,
          5.50730573e-03, 5.50730573e-03, 5.50730573e-03, 2.60300618e-02,
          5.50730573e-03, -3.96250561e-02, 5.50730573e-03,
          5.50730573e-03, 5.50730573e-03, 5.50730573e-03, 5.50730573e-03,
          2.60300618e-02, 5.50730573e-03, -3.96250561e-02,
          2.60300618e-02, 5.50730573e-03, 5.50730573e-03, 5.50730573e-03,
          5.50730573e-03, 5.50730573e-03, 5.50730573e-03 ]
      - [ 2.96784967e-01, -9.20535326e-01, -9.20503020e-01,
          2.25763656e-02, 2.25763656e-02, 2.25763656e-02, 2.25763656e-02,
          2.25763656e-02, 2.25763656e-02, 2.25763656e-02, 2.25763656e-02,
          2.25763656e-02, 2.25763656e-02, 2.25763656e-02, 2.25763656e-02,
          2.25763656e-02, 2.25763656e-02, 2.25763656e-02, 2.25763656e-02,
          6.85502589e-01, 2.25763656e-02, 2.25763656e-02, 2.25763656e-02,
          2.25763656e-02, 2.25763656e-02, 9.40064341e-02, 2.25763656e-02,
          2.25763656e-02, -1.53831586e-01, 2.25763656e-02,
          -5.08757585e-05, 2.25763656e-02, 2.25763656e-02,
          2.25763656e-02, 2.25763656e-02, 2.25763656e-02,
          -1.53831586e-01, 2.25763656e-02, -5.08757585e-05,
          2.25763656e-02, 2.25763656e-02, 2.25763656e-02, 2.25763656e-02,
          2.25763656e-02, -1.53831586e-01, 2.25763656e-02,
          -5.08757585e-05, 2.25763656e-02, 2.25763656e-02,
          2.25763656e-02, 2.25763656e-02, 2.25763656e-02,
          -4.50667441e-01, 2.25763656e-02, -5.08757585e-05,
          2.25763656e-02, 2.25763656e-02, 2.25763656e-02, 2.25763656e-02,
          2.25763656e-02, 1.19813301e-01, 2.25763656e-02,
          -5.08757585e-05, 2.25763656e-02, 2.25763656e-02,
          2.25763656e-02, 2.25763656e-02, 2.25763656e-02, 1.19813301e-01,
          2.25763656e-02, -5.08757585e-05, 2.25763656e-02,
          2.25763656e-02, 2.25763656e-02, 2.25763656e-02, 2.25763656e-02,
          -1.53831586e-01, 2.25763656e-02, -5.08757585e-05,
          2.25763656e-02, 2.25763656e-02, 2.25763656e-02, 2.25763656e-02,
          2.25763656e-02, -1.53831586e-01, 2.25763656e-02,
          -5.08757585e-05, 1.19852059e-01, 2.25763656e-02,
          2.25763656e-02, 2.25763656e-02, 2.25763656e-02, 2.25763656e-02,
          2.25763656e-02 ]
      - [ 7.68786907e-01, -1.98710486e-01, -2.63266474e-01,
          -4.64449823e-03, -4.64449823e-03, -4.64449823e-03,
          -4.64449823e-03, -4.64449823e-03, -4.64449823e-03,
          -4.64449823e-03, -4.64449823e-03, -4.64449823e-03,
          -4.64449823e-03, -4.64449823e-03, -4.64449823e-03,
          -4.64449823e-03, -4.64449823e-03, -4.64449823e-03,
          -4.64449823e-03, 5.59757590e-01, -4.64449823e-03,
          -1.34154364e-01, -4.64449823e-03, -4.64449823e-03,
          -4.64449823e-03, 6.57269061e-02, -4.64449823e-03,
          -4.64449823e-03, -2.39315197e-01, -4.64449823e-03,
          -2.21580490e-02, -4.64449823e-03, -4.64449823e-03,
          -4.64449823e-03, -4.64449823e-03, -4.64449823e-03,
          -5.04398756e-02, -4.64449823e-03, -2.21580490e-02,
          -4.64449823e-03, -4.64449823e-03, -4.64449823e-03,
          -4.64449823e-03, -4.64449823e-03, -5.04398756e-02,
          -4.64449823e-03, -2.21580490e-02, -4.64449823e-03,
          -4.64449823e-03, -4.64449823e-03, -4.64449823e-03,
          -4.64449823e-03, -5.04398756e-02, -4.64449823e-03,
          -2.21580490e-02, -4.64449823e-03, -4.64449823e-03,
          5.47097325e-01, -4.64449823e-03, -4.64449823e-03,
          -3.66609134e-02, -4.64449823e-03, -2.21580490e-02,
          -4.64449823e-03, -4.64449823e-03, -4.64449823e-03,
          -4.64449823e-03, -4.64449823e-03, -3.66609134e-02,
          -4.64449823e-03, -2.21580490e-02, -4.64449823e-03,
          -4.64449823e-03, -4.64449823e-03, -4.64449823e-03,
          -4.64449823e-03, -2.39315197e-01, -4.64449823e-03,
          -2.21580490e-02, -4.64449823e-03, -4.64449823e-03,
          -4.64449823e-03, -4.64449823e-03, -4.64449823e-03,
          -2.39315197e-01, -4.64449823e-03, -2.21580490e-02,
          9.97291356e-02, -4.64449823e-03, -4.64449823e-03,
          -4.64449823e-03, -4.64449823e-03, -4.64449823e-03,
          -4.64449823e-03 ]
      - [ 1.01301692e-01, 2.85154760e-01, 1.43735543e-01,
          -1.51944444e-01, -3.12351109e-03, -3.12351109e-03,
          -3.12351109e-03, -3.12351109e-03, -3.12351109e-03,
          -3.12351109e-03, -3.12351109e-03, -3.12351109e-03,
          -3.12351109e-03, -3.12351109e-03, -3.12351109e-03,
          -3.12351109e-03, -3.12351109e-03, -3.12351109e-03,
          -3.12351109e-03, -1.45542547e-01, -3.12351109e-03,
          -7.90418535e-02, -3.12351109e-03, -3.12351109e-03,
          -3.12351109e-03, 3.15555721e-03, -3.12351109e-03,
          -3.12351109e-03, -1.18920915e-02, -3.12351109e-03,
          1.75402742e-02, -3.12351109e-03, -3.12351109e-03,
          -3.12351109e-03, -3.12351109e-03, -3.12351109e-03,
          -1.18920915e-02, -3.12351109e-03, 1.75402742e-02,
          -3.12351109e-03, -3.12351109e-03, -3.12351109e-03,
          -3.12351109e-03, -3.12351109e-03, -1.18920915e-02,
          -3.12351109e-03, 1.75402742e-02, -3.12351109e-03,
          -3.12351109e-03, 1.53920730e-03, -3.12351109e-03,
          -3.12351109e-03, -2.61276923e-02, -3.12351109e-03,
          1.75402742e-02, -3.12351109e-03, -3.12351109e-03,
          -3.12351109e-03, -3.12351109e-03, -3.12351109e-03,
          -5.61302295e-03, -3.12351109e-03, 1.75402742e-02,
          -3.12351109e-03, -3.12351109e-03, -3.12351109e-03,
          -3.12351109e-03, -3.12351109e-03, -5.61302295e-03,
          -3.12351109e-03, 1.75402742e-02, -3.12351109e-03,
          -3.12351109e-03, 7.31932512e-03, -3.12351109e-03,
          -3.12351109e-03, -1.18920915e-02, -3.12351109e-03,
          1.75402742e-02, -3.12351109e-03, -3.12351109e-03,
          7.31936609e-03, -3.12351109e-03, -3.12351109e-03,
          -7.22937286e-03, -3.12351109e-03, 1.75402742e-02,
          -1.18920915e-02, -3.12351109e-03, -3.12351109e-03,
          -3.12351109e-03, -3.12351109e-03, -3.12351109e-03,
          -3.12351109e-03 ]
      - [ 9.89212021e-02, -1.73418924e-01, 9.89210755e-02,
          -1.74958967e-02, -1.74958967e-02, -1.74958967e-02,
          -1.74958967e-02, -1.74958967e-02, -1.74958967e-02,
          -1.74958967e-02, -1.74958967e-02, -1.74958967e-02,
          -1.74958967e-02, -1.74958967e-02, -1.74958967e-02,
          -1.74958967e-02, -1.74958967e-02, -1.74958967e-02,
          -1.74958967e-02, 7.14542091e-01, -1.74958967e-02,
          -1.74958967e-02, -1.74958967e-02, -1.74958967e-02,
          -1.74958967e-02, -1.74958967e-02, -1.74958967e-02,
          -1.74958967e-02, -6.74912333e-03, -1.74958967e-02,
          1.55773712e-02, -1.74958967e-02, -1.74958967e-02,
          -1.74958967e-02, -1.74958967e-02, -1.74958967e-02,
          -6.74912333e-03, -1.74958967e-02, 1.55773712e-02,
          -1.74958967e-02, -1.74958967e-02, -1.74958967e-02,
          -1.74958967e-02, -1.74958967e-02, -6.74912333e-03,
          -1.74958967e-02, 1.55773712e-02, -1.74958967e-02,
          -1.74958967e-02, -1.74958967e-02, -1.74958967e-02,
          -1.74958967e-02, -6.23841509e-02, -1.74958967e-02,
          1.55773712e-02, -1.74958967e-02, -1.74958967e-02,
          4.85675186e-01, -1.74958967e-02, -1.74958967e-02,
          1.49846347e-02, -1.74958967e-02, 1.55773712e-02,
          -1.74958967e-02, -1.74958967e-02, -1.74958967e-02,
          -1.74958967e-02, -1.74958967e-02, 1.49846347e-02,
          -1.74958967e-02, 1.55773712e-02, -1.74958967e-02,
          -1.74958967e-02, -1.74958967e-02, -1.74958967e-02,
          -1.74958967e-02, -6.74912333e-03, -1.74958967e-02,
          1.55773712e-02, -1.74958967e-02, -1.74958967e-02,
          -1.74958967e-02, -1.74958967e-02, -1.74958967e-02,
          -6.74912333e-03, -1.74958967e-02, 1.55773712e-02,
          -2.33945157e-02, -1.74958967e-02, -1.74958967e-02,
          -1.74958967e-02, -1.74958967e-02, -1.74958967e-02,
          -1.74958967e-02 ]
      - [ .Nan, .Nan, .Nan, .Nan, .Nan, .Nan, .Nan, .Nan, .Nan, .Nan,
          .Nan, .Nan, .Nan, .Nan, .Nan, .Nan, .Nan, .Nan, .Nan, .Nan,
          .Nan, .Nan, .Nan, .Nan, .Nan, .Nan, .Nan, .Nan, .Nan, .Nan,
          .Nan, .Nan, .Nan, .Nan, .Nan, .Nan, .Nan, .Nan, .Nan, .Nan,
          .Nan, .Nan, .Nan, .Nan, .Nan, .Nan, .Nan, .Nan, .Nan, .Nan,
          .Nan, .Nan, .Nan, .Nan, .Nan, .Nan, .Nan, .Nan, .Nan, .Nan,
          .Nan, .Nan, .Nan, .Nan, .Nan, .Nan, .Nan, .Nan, .Nan, .Nan,
          .Nan, .Nan, .Nan, .Nan, .Nan, .Nan, .Nan, .Nan, .Nan, .Nan,
          .Nan, .Nan, .Nan, .Nan, .Nan, .Nan, .Nan, 2.75680027e+01,
          -5.74762487e+00, -5.74762487e+00, -5.74762487e+00,
          -5.74762487e+00, -5.74762487e+00, -5.74762487e+00 ]
      - [ 8.67485940e-01, -1.12143800e-01, 2.37482209e-02,
          -1.22846104e-02, -1.22846104e-02, -1.22846104e-02,
          -1.22846104e-02, -1.22846104e-02, -1.22846104e-02,
          -1.22846104e-02, -1.22846104e-02, -1.22846104e-02,
          -1.22846104e-02, -1.22846104e-02, -1.22846104e-02,
          -1.22846104e-02, -1.22846104e-02, -1.22846104e-02,
          -1.22846104e-02, 7.26105392e-01, -1.22846104e-02,
          -3.67896020e-01, -1.12143911e-01, -1.22846104e-02,
          -1.22846104e-02, -3.05117704e-02, -1.22846104e-02,
          -1.22846104e-02, -4.68244925e-02, -1.22846104e-02,
          -3.58680896e-02, -1.22846104e-02, -1.22846104e-02,
          -1.22846104e-02, -1.22846104e-02, -1.22846104e-02,
          -4.68244925e-02, -1.22846104e-02, -3.58680896e-02,
          -1.22846104e-02, -1.22846104e-02, -1.22846104e-02,
          -1.22846104e-02, -1.22846104e-02, -4.68244925e-02,
          -1.22846104e-02, -3.58680896e-02, -1.22846104e-02,
          -1.22846104e-02, -1.22846104e-02, -1.22846104e-02,
          -1.22846104e-02, -4.68244925e-02, -1.22846104e-02,
          -3.58680896e-02, -1.22846104e-02, -1.22846104e-02,
          -1.22846104e-02, -1.22846104e-02, -1.22846104e-02,
          2.63648987e-01, -1.22846104e-02, -3.58680896e-02,
          -1.22846104e-02, -1.22846104e-02, -1.22846104e-02,
          -1.22846104e-02, -1.22846104e-02, 2.63648987e-01,
          -1.22846104e-02, -3.58680896e-02, -1.22846104e-02,
          -1.22846104e-02, -1.22846104e-02, -1.22846104e-02,
          -1.22846104e-02, -4.68244925e-02, -1.22846104e-02,
          -3.58680896e-02, -1.22846104e-02, -1.22846104e-02,
          -1.22846104e-02, -1.22846104e-02, -1.22846104e-02,
          -4.68244925e-02, -1.22846104e-02, -3.58680896e-02,
          -9.41275060e-02, -1.22846104e-02, -1.22846104e-02,
          -1.22846104e-02, -1.22846104e-02, -1.22846104e-02,
          -1.22846104e-02 ]
      - [ -2.20738575e-02, 2.18375940e-02, 1.77177191e-01,
          1.84579007e-03, 1.84579007e-03, 1.84579007e-03, 1.84579007e-03,
          1.84579007e-03, 1.84579007e-03, 1.84579007e-03, 1.84579007e-03,
          1.84579007e-03, 1.84579007e-03, 1.84579007e-03, 1.84579007e-03,
          1.84579007e-03, 1.84579007e-03, 1.84579007e-03, 1.84579007e-03,
          3.52829918e-02, -3.63447994e-01, 1.84579007e-03,
          -3.56928676e-01, 1.84579007e-03, 1.84579007e-03,
          1.86524689e-01, 1.84579007e-03, 1.84579007e-03, 2.15385314e-02,
          1.84579007e-03, -1.78020331e-04, 1.84579007e-03,
          1.84579007e-03, 1.84579007e-03, 1.84579007e-03, 1.84579007e-03,
          2.15385314e-02, 1.84579007e-03, -1.78020331e-04,
          1.84579007e-03, 1.84579007e-03, 1.84579007e-03, 1.84579007e-03,
          1.84579007e-03, 2.15385314e-02, 1.84579007e-03,
          -1.78020331e-04, 1.84579007e-03, 1.84579007e-03,
          1.84579007e-03, 1.84579007e-03, 1.84579007e-03, 2.15385314e-02,
          1.84579007e-03, -1.78020331e-04, 1.84579007e-03,
          1.84579007e-03, 1.84579007e-03, 1.84579007e-03, 1.84579007e-03,
          2.15385314e-02, 1.84579007e-03, -1.78020331e-04,
          1.84579007e-03, 1.84579007e-03, 1.84579007e-03, 1.84579007e-03,
          1.84579007e-03, 2.15385314e-02, 1.84579007e-03,
          -1.78020331e-04, 1.84579007e-03, 1.84579007e-03,
          1.84579007e-03, 1.84579007e-03, 1.84579007e-03, 2.15385314e-02,
          1.84579007e-03, -1.78020331e-04, 1.84579007e-03,
          1.84579007e-03, 1.84579007e-03, 1.84579007e-03, 1.84579007e-03,
          2.15385314e-02, 1.84579007e-03, -1.78020331e-04,
          2.15385314e-02, 1.84579007e-03, 1.84579007e-03, 1.84579007e-03,
          1.84579007e-03, 1.84579007e-03, 1.84579007e-03 ]
      - [ 1.23693086e-02, 2.10822210e-01, -1.53374389e-01,
          -1.17576984e-03, 4.51161675e-02, 2.19701976e-02,
          2.19701976e-02, -1.17576984e-03, -1.17576984e-03,
          -1.17576984e-03, -1.17576984e-03, -1.17576984e-03,
          -4.50206064e-02, -1.17576984e-03, -1.17576984e-03,
          -4.50206064e-02, -1.17576984e-03, -1.17576984e-03,
          -1.17576984e-03, -8.88654366e-02, -1.17576984e-03,
          -1.17576984e-03, -1.17576984e-03, -1.17576984e-03,
          -1.17576984e-03, -1.17576984e-03, -1.17576984e-03,
          -1.17576984e-03, -3.54794110e-03, -1.17576984e-03,
          2.19701976e-02, -1.17576984e-03, -1.17576984e-03,
          -1.17576984e-03, -1.17576984e-03, -1.17576984e-03,
          -3.54794110e-03, -1.17576984e-03, 2.19701976e-02,
          -1.17576984e-03, -1.17576984e-03, -1.17576984e-03,
          -1.17576984e-03, -1.17576984e-03, -3.54794110e-03,
          -1.17576984e-03, 2.19701976e-02, -1.17576984e-03,
          -1.17576984e-03, -1.17576984e-03, -1.17576984e-03,
          -1.17576984e-03, -3.54794110e-03, -1.17576984e-03,
          2.19701976e-02, -1.17576984e-03, -1.17576984e-03,
          -1.17576984e-03, -1.17576984e-03, -1.17576984e-03,
          -3.54794110e-03, -1.17576984e-03, 2.19701976e-02,
          -1.17576984e-03, -1.17576984e-03, -1.17576984e-03,
          -1.17576984e-03, -1.17576984e-03, -3.54794110e-03,
          -1.17576984e-03, 2.19701976e-02, -1.17576984e-03,
          -1.17576984e-03, -1.17576984e-03, -1.17576984e-03,
          -1.17576984e-03, -3.54794110e-03, -1.17576984e-03,
          2.19701976e-02, -1.17576984e-03, -1.17576984e-03,
          -1.17576984e-03, -1.17576984e-03, -1.17576984e-03,
          -3.54794110e-03, -1.17576984e-03, 2.19701976e-02,
          -3.54794110e-03, -4.50206064e-02, -1.17576984e-03,
          -1.17576984e-03, -1.17576984e-03, -1.17576984e-03,
          -1.17576984e-03 ]
      - [ 4.31473255e-02, 1.76202893e-01, -1.40469536e-01,
          -2.84322221e-02, 5.00195809e-02, 3.38332281e-02,
          2.41564661e-02, -3.81089859e-02, -1.70664478e-03,
          -1.70664478e-03, -1.70664478e-03, -1.70664478e-03,
          -1.70664478e-03, -1.70664478e-03, -1.70664478e-03,
          -5.67371771e-02, -1.70664478e-03, -1.70664478e-03,
          -1.70664478e-03, -3.77463214e-02, -1.70664478e-03,
          -1.11767709e-01, -1.70664478e-03, -1.70664478e-03,
          -1.70664478e-03, -1.70664478e-03, -1.70664478e-03,
          -3.81089859e-02, 2.52363607e-02, -1.70664478e-03,
          1.64217483e-02, -1.70664478e-03, -1.70664478e-03,
          -1.70664478e-03, -1.70664478e-03, -3.81089859e-02,
          2.52363607e-02, -1.70664478e-03, 1.64217483e-02,
          -1.70664478e-03, -1.70664478e-03, -1.70664478e-03,
          -1.70664478e-03, -1.70664478e-03, 2.52363607e-02,
          -1.70664478e-03, 1.64217483e-02, -1.70664478e-03,
          -1.70664478e-03, -1.70664478e-03, -1.70664478e-03,
          -1.70664478e-03, 2.52363607e-02, -1.70664478e-03,
          1.64217483e-02, -1.70664478e-03, -1.70664478e-03,
          -1.70664478e-03, -1.70664478e-03, -1.70664478e-03,
          2.52363607e-02, -1.70664478e-03, 1.64217483e-02,
          -1.70664478e-03, -1.70664478e-03, -1.70664478e-03,
          -1.70664478e-03, -3.81089859e-02, 2.52363607e-02,
          -1.70664478e-03, 1.64217483e-02, -1.70664478e-03,
          -1.70664478e-03, 5.33238910e-02, -1.70664478e-03,
          -3.81089859e-02, 2.52363607e-02, -1.70664478e-03,
          1.64217483e-02, -1.70664478e-03, -1.70664478e-03,
          -1.70664478e-03, -1.70664478e-03, -3.81089859e-02,
          2.52363607e-02, -1.70664478e-03, 1.64217483e-02,
          -7.74274906e-03, -1.70664478e-03, -1.70664478e-03,
          -1.70664478e-03, -1.70664478e-03, -1.70664478e-03,
          -1.70664478e-03 ]
      - [ 1.83456321e-03, 9.39590484e-02, -3.61447453e-01,
          -3.46565223e-03, 3.05509940e-02, 9.32850838e-02,
          1.35426698e-02, -3.46565223e-03, -3.46565223e-03,
          -3.46565223e-03, -3.46565223e-03, -3.46565223e-03,
          -3.46565223e-03, -3.46565223e-03, -3.46565223e-03,
          -3.46565223e-03, -3.46565223e-03, -3.46565223e-03,
          -3.46565223e-03, 5.86000495e-02, -3.46565223e-03,
          -3.46565223e-03, -3.46565223e-03, -3.46565223e-03,
          -3.46565223e-03, 2.05195658e-02, -3.46565223e-03,
          -3.46565223e-03, 3.43525819e-02, -3.46565223e-03,
          4.39875154e-03, -3.46565223e-03, -3.46565223e-03,
          -3.46565223e-03, -3.46565223e-03, -3.46565223e-03,
          3.43525819e-02, -3.46565223e-03, 4.39875154e-03,
          -3.46565223e-03, -3.46565223e-03, -3.46565223e-03,
          -3.46565223e-03, -3.46565223e-03, 3.43525819e-02,
          -3.46565223e-03, 4.39875154e-03, -3.46565223e-03,
          -3.46565223e-03, -3.46565223e-03, -3.46565223e-03,
          -3.46565223e-03, 3.43525819e-02, -3.46565223e-03,
          4.39875154e-03, -3.46565223e-03, -3.46565223e-03,
          -3.46565223e-03, -3.46565223e-03, -3.46565223e-03,
          3.43525819e-02, -3.46565223e-03, 4.39875154e-03,
          -3.46565223e-03, -3.46565223e-03, -3.46565223e-03,
          -3.46565223e-03, -3.46565223e-03, 3.43525819e-02,
          -3.46565223e-03, 4.39875154e-03, -3.46565223e-03,
          -3.46565223e-03, -3.46565223e-03, -3.46565223e-03,
          -3.46565223e-03, 3.43525819e-02, -3.46565223e-03,
          4.39875154e-03, -3.46565223e-03, -3.46565223e-03,
          -3.46565223e-03, -3.46565223e-03, -3.46565223e-03,
          3.43525819e-02, -3.46565223e-03, 4.39875154e-03,
          -2.17251591e-02, -3.46565223e-03, -3.46565223e-03,
          -3.46565223e-03, -3.46565223e-03, -3.46565223e-03,
          -3.46565223e-03 ]
      - [ -4.65781651e-02, 1.50829211e-01, -2.10684314e-01,
          2.45195581e-03, 4.70897630e-02, 1.59149051e-01, 2.47708578e-02,
          2.45195581e-03, 2.45195581e-03, 2.45195581e-03, 2.45195581e-03,
          2.45195581e-03, 2.45195581e-03, 2.45195581e-03, 2.45195581e-03,
          2.45195581e-03, 2.45195581e-03, 2.45195581e-03, 2.45195581e-03,
          1.13348216e-01, -1.18465751e-01, -2.32916132e-01,
          -2.71143168e-01, 2.45195581e-03, 2.45195581e-03,
          8.12100247e-02, 2.45195581e-03, 2.45195581e-03, 1.62252672e-02,
          2.45195581e-03, -3.54980747e-03, 2.45195581e-03,
          2.45195581e-03, 2.45195581e-03, 2.45195581e-03, 2.45195581e-03,
          1.62252672e-02, 2.45195581e-03, -3.54980747e-03,
          2.45195581e-03, 2.45195581e-03, 2.45195581e-03, 2.45195581e-03,
          2.45195581e-03, 1.62252672e-02, 2.45195581e-03,
          -3.54980747e-03, 2.45195581e-03, 2.45195581e-03,
          2.45195581e-03, 2.45195581e-03, 2.45195581e-03, 1.62252672e-02,
          2.45195581e-03, -3.54980747e-03, 2.45195581e-03,
          2.45195581e-03, 1.52683472e-02, 2.45195581e-03, 2.45195581e-03,
          1.62252672e-02, 2.45195581e-03, -3.54980747e-03,
          2.45195581e-03, 2.45195581e-03, 1.35678640e-02, 2.45195581e-03,
          2.45195581e-03, 1.62252672e-02, 2.45195581e-03,
          -3.54980747e-03, 2.45195581e-03, 2.45195581e-03,
          2.45195581e-03, 2.45195581e-03, 2.45195581e-03, 1.62252672e-02,
          2.45195581e-03, -3.54980747e-03, 2.45195581e-03,
          2.45195581e-03, 2.45195581e-03, 2.45195581e-03, 2.45195581e-03,
          1.62252672e-02, 2.45195581e-03, -3.54980747e-03,
          1.62252672e-02, 2.45195581e-03, 2.45195581e-03, 2.45195581e-03,
          2.45195581e-03, 2.45195581e-03, 2.45195581e-03 ]
      - [ 6.90542441e-03, 2.77101509e-02, -7.21487463e-01,
          4.39475896e-03, 1.22478800e-02, 1.63854718e-01, 8.32131971e-03,
          4.39475896e-03, 4.39475896e-03, 4.39475896e-03, 4.39475896e-03,
          4.39475896e-03, 4.39475896e-03, 4.39475896e-03, 4.39475896e-03,
          4.39475896e-03, 4.39475896e-03, 4.39475896e-03, 4.39475896e-03,
          1.61170468e-01, 4.39475896e-03, 4.39475896e-03, 4.39475896e-03,
          4.39475896e-03, 4.39475896e-03, -1.04714977e-02,
          4.39475896e-03, 4.39475896e-03, 1.80157386e-02, 4.39475896e-03,
          -1.42038791e-02, 4.39475896e-03, 4.39475896e-03,
          4.39475896e-03, 4.39475896e-03, 4.39475896e-03, 1.80157386e-02,
          4.39475896e-03, -1.42038791e-02, 4.39475896e-03,
          4.39475896e-03, 4.39475896e-03, 4.39475896e-03, 4.39475896e-03,
          1.80157386e-02, 4.39475896e-03, -1.42038791e-02,
          4.39475896e-03, 4.39475896e-03, 4.39475896e-03, 4.39475896e-03,
          4.39475896e-03, 1.80157386e-02, 4.39475896e-03,
          -1.42038791e-02, 4.39475896e-03, 4.39475896e-03,
          4.39475896e-03, 4.39475896e-03, 4.39475896e-03, 1.80157386e-02,
          4.39475896e-03, -1.42038791e-02, 4.39475896e-03,
          4.39475896e-03, 4.39475896e-03, 4.39475896e-03, 4.39475896e-03,
          1.80157386e-02, 4.39475896e-03, -1.42038791e-02,
          4.39475896e-03, 4.39475896e-03, 4.39475896e-03, 4.39475896e-03,
          4.39475896e-03, 1.80157386e-02, 4.39475896e-03,
          -1.42038791e-02, 4.39475896e-03, 4.39475896e-03,
          4.39475896e-03, 4.39475896e-03, 4.39475896e-03, 1.80157386e-02,
          4.39475896e-03, -1.42038791e-02, 1.80157386e-02,
          4.39475896e-03, 4.39475896e-03, 4.39475896e-03, 4.39475896e-03,
          4.39475896e-03, 4.39475896e-03 ]
      - [ 1.60682097e-01, 1.48041137e-02, -5.49533308e-01,
          8.01911519e-04, 8.01911519e-04, 3.53407502e-01, 8.01911519e-04,
          8.01911519e-04, 8.01911519e-04, 8.01911519e-04, 8.01911519e-04,
          8.01911519e-04, 8.01911519e-04, 8.01911519e-04, 8.01911519e-04,
          8.01911519e-04, 8.01911519e-04, 8.01911519e-04, 8.01911519e-04,
          1.60682097e-01, 8.01911519e-04, 8.01911519e-04, 8.01911519e-04,
          8.01911519e-04, 8.01911519e-04, 2.91751288e-02, 8.01911519e-04,
          8.01911519e-04, 7.80301075e-03, 8.01911519e-04,
          -3.70475538e-02, 8.01911519e-04, 8.01911519e-04,
          8.01911519e-04, 8.01911519e-04, 8.01911519e-04, 7.80301075e-03,
          8.01911519e-04, -3.70475538e-02, 8.01911519e-04,
          8.01911519e-04, 8.01911519e-04, 8.01911519e-04, 8.01911519e-04,
          7.80301075e-03, 8.01911519e-04, -3.70475538e-02,
          8.01911519e-04, 8.01911519e-04, 8.01911519e-04, 8.01911519e-04,
          8.01911519e-04, 7.80301075e-03, 8.01911519e-04,
          -3.70475538e-02, 8.01911519e-04, 8.01911519e-04,
          8.01911519e-04, 8.01911519e-04, 8.01911519e-04, 7.80301075e-03,
          8.01911519e-04, -3.70475538e-02, 8.01911519e-04,
          8.01911519e-04, 8.01911519e-04, 8.01911519e-04, 8.01911519e-04,
          7.80301075e-03, 8.01911519e-04, -3.70475538e-02,
          8.01911519e-04, 8.01911519e-04, 8.01911519e-04, 8.01911519e-04,
          8.01911519e-04, 7.80301075e-03, 8.01911519e-04,
          -3.70475538e-02, 8.01911519e-04, 8.01911519e-04,
          8.01911519e-04, 8.01911519e-04, 8.01911519e-04, 7.80301075e-03,
          8.01911519e-04, -3.70475538e-02, 7.80301075e-03,
          8.01911519e-04, 8.01911519e-04, 8.01911519e-04, 8.01911519e-04,
          8.01911519e-04, 8.01911519e-04 ]
      - [ 2.23624613e-02, 2.32991368e-01, -3.28041497e-03,
          -1.20001391e-01, 4.27594744e-02, 2.23624166e-02,
          1.97395291e-02, -3.28041497e-03, -3.28041497e-03,
          -3.28041497e-03, -3.28041497e-03, -3.28041497e-03,
          -3.28041497e-03, -3.28041497e-03, -3.28041497e-03,
          -3.28041497e-03, -3.28041497e-03, -3.28041497e-03,
          -3.28041497e-03, -1.20001391e-01, -3.28041497e-03,
          -6.47206977e-02, -3.28041497e-03, -3.28041497e-03,
          -3.28041497e-03, -2.32366408e-04, -3.28041497e-03,
          -3.28041497e-03, -8.33850820e-03, -3.28041497e-03,
          2.49853488e-02, -3.28041497e-03, -3.28041497e-03,
          -3.28041497e-03, -3.28041497e-03, -3.28041497e-03,
          -8.33850820e-03, -3.28041497e-03, 2.49853488e-02,
          -3.28041497e-03, -3.28041497e-03, -3.28041497e-03,
          -3.28041497e-03, -3.28041497e-03, -8.33850820e-03,
          -3.28041497e-03, 2.49853488e-02, -3.28041497e-03,
          -3.28041497e-03, 5.20630507e-03, -3.28041497e-03,
          -3.28041497e-03, -5.29045938e-03, -3.28041497e-03,
          2.49853488e-02, -3.28041497e-03, -3.28041497e-03,
          -3.28041497e-03, -3.28041497e-03, -3.28041497e-03,
          -5.29045938e-03, -3.28041497e-03, 2.49853488e-02,
          -3.28041497e-03, -3.28041497e-03, -3.28041497e-03,
          -3.28041497e-03, -3.28041497e-03, -5.29045938e-03,
          -3.28041497e-03, 2.49853488e-02, -3.28041497e-03,
          -3.28041497e-03, 1.51470713e-02, -3.28041497e-03,
          -3.28041497e-03, -8.33850820e-03, -3.28041497e-03,
          2.49853488e-02, -3.28041497e-03, -3.28041497e-03,
          1.51470732e-02, -3.28041497e-03, -3.28041497e-03,
          1.48211970e-04, -3.28041497e-03, 2.49853488e-02,
          -8.33850820e-03, -3.28041497e-03, -3.28041497e-03,
          -3.28041497e-03, -3.28041497e-03, -3.28041497e-03,
          -3.28041497e-03 ]
      - [ 7.14178026e-01, -5.19300997e-02, -1.05032384e-01,
          -3.47983604e-03, -1.44454865e-02, 7.14178026e-01,
          -1.44454865e-02, -1.44454865e-02, -1.44454865e-02,
          -1.44454865e-02, -1.44454865e-02, -1.44454865e-02,
          -1.44454865e-02, -1.44454865e-02, -1.44454865e-02,
          -1.44454865e-02, -1.44454865e-02, -1.44454865e-02,
          -1.44454865e-02, -3.47988377e-03, -1.44454865e-02,
          -1.44454865e-02, -1.44454865e-02, -1.44454865e-02,
          -1.44454865e-02, -1.44454865e-02, -1.44454865e-02,
          -1.44454865e-02, -3.31878103e-02, -1.44454865e-02,
          7.48576643e-03, -1.44454865e-02, -1.44454865e-02,
          -1.44454865e-02, -1.44454865e-02, -1.44454865e-02,
          -3.31878103e-02, -1.44454865e-02, 7.48576643e-03,
          -1.44454865e-02, -1.44454865e-02, -1.44454865e-02,
          -1.44454865e-02, -1.44454865e-02, -3.31878103e-02,
          -1.44454865e-02, 7.48576643e-03, -1.44454865e-02,
          -1.44454865e-02, -1.44454865e-02, -1.44454865e-02,
          -1.44454865e-02, -3.31878103e-02, -1.44454865e-02,
          7.48576643e-03, -1.44454865e-02, -1.44454865e-02,
          3.08479611e-02, -1.44454865e-02, -1.44454865e-02,
          -3.31878103e-02, -1.44454865e-02, 7.48576643e-03,
          -1.44454865e-02, -1.44454865e-02, -1.44454865e-02,
          -1.44454865e-02, -1.44454865e-02, -3.31878103e-02,
          -1.44454865e-02, 7.48576643e-03, -1.44454865e-02,
          -1.44454865e-02, -1.44454865e-02, -1.44454865e-02,
          -1.44454865e-02, -3.31878103e-02, -1.44454865e-02,
          7.48576643e-03, -1.44454865e-02, -1.44454865e-02,
          -1.44454865e-02, -1.44454865e-02, -1.44454865e-02,
          -3.31878103e-02, -1.44454865e-02, 7.48576643e-03,
          -7.84812570e-02, -1.44454865e-02, -1.44454865e-02,
          -1.44454865e-02, -1.44454865e-02, -1.44454865e-02,
          -1.44454865e-02 ]
      - [ .Nan, .Nan, .Nan, .Nan, .Nan, .Nan, .Nan, .Nan, .Nan, .Nan,
          .Nan, .Nan, .Nan, .Nan, .Nan, .Nan, .Nan, .Nan, .Nan, .Nan,
          .Nan, .Nan, .Nan, .Nan, .Nan, .Nan, .Nan, .Nan, .Nan, .Nan,
          .Nan, .Nan, .Nan, .Nan, .Nan, .Nan, .Nan, .Nan, .Nan, .Nan,
          .Nan, .Nan, .Nan, .Nan, .Nan, .Nan, .Nan, .Nan, .Nan, .Nan,
          .Nan, .Nan, .Nan, .Nan, .Nan, .Nan, .Nan, .Nan, .Nan, .Nan,
          .Nan, .Nan, .Nan, .Nan, .Nan, .Nan, .Nan, .Nan, .Nan, .Nan,
          .Nan, .Nan, .Nan, .Nan, .Nan, .Nan, .Nan, .Nan, .Nan, .Nan,
          .Nan, .Nan, .Nan, .Nan, .Nan, .Nan, .Nan, 3.11847725e+01,
          -4.92564297e+00, -4.92564297e+00, -4.92564297e+00,
          -4.92564297e+00, -4.92564297e+00, -4.92564297e+00 ]
      - [ 2.15296909e-01, 1.86871827e-01, -4.48814899e-01,
          9.17511806e-03, -3.48047673e-04, 4.20145661e-01,
          -1.62156031e-03, -2.89507280e-03, -2.89507280e-03,
          -2.89507280e-03, -2.89507280e-03, -2.89507280e-03,
          -2.89507280e-03, -2.89507280e-03, -2.89507280e-03,
          -2.89507280e-03, -2.89507280e-03, -2.89507280e-03,
          -2.89507280e-03, 2.14023396e-01, -2.89507280e-03,
          -2.32913032e-01, -1.66120932e-01, -2.89507280e-03,
          -2.89507280e-03, -2.27585565e-02, -2.89507280e-03,
          -2.89507280e-03, 1.10121965e-02, -2.89507280e-03,
          -3.88736241e-02, -2.89507280e-03, -2.89507280e-03,
          -2.89507280e-03, -2.89507280e-03, -2.89507280e-03,
          1.10121965e-02, -2.89507280e-03, -3.88736241e-02,
          -2.89507280e-03, -2.89507280e-03, -2.89507280e-03,
          -2.89507280e-03, -2.89507280e-03, 1.10121965e-02,
          -2.89507280e-03, -3.88736241e-02, -2.89507280e-03,
          -2.89507280e-03, -2.89507280e-03, -2.89507280e-03,
          -2.89507280e-03, 1.10121965e-02, -2.89507280e-03,
          -3.88736241e-02, -2.89507280e-03, -2.89507280e-03,
          -2.89507280e-03, -2.89507280e-03, -2.89507280e-03,
          1.10121965e-02, -2.89507280e-03, -3.88736241e-02,
          -2.89507280e-03, -2.89507280e-03, -2.89507280e-03,
          -2.89507280e-03, -2.89507280e-03, 1.10121965e-02,
          -2.89507280e-03, -3.88736241e-02, -2.89507280e-03,
          -2.89507280e-03, -2.89507280e-03, -2.89507280e-03,
          -2.89507280e-03, 1.10121965e-02, -2.89507280e-03,
          -3.88736241e-02, -2.89507280e-03, -2.89507280e-03,
          2.27122888e-01, -2.89507280e-03, -2.89507280e-03,
          1.10121965e-02, -2.89507280e-03, -3.88736241e-02,
          1.10121965e-02, -2.89507280e-03, -2.89507280e-03,
          -2.89507280e-03, -2.89507280e-03, -2.89507280e-03,
          -2.89507280e-03 ]
      - [ -6.78202836e-03, 2.46207818e-01, -2.41619647e-02,
          -1.68728875e-03, 1.03581019e-01, 7.42008537e-02,
          5.09468615e-02, -1.68728875e-03, -1.68728875e-03,
          -1.68728875e-03, -1.68728875e-03, -1.68728875e-03,
          -1.68728875e-03, -1.68728875e-03, -1.68728875e-03,
          -1.68728875e-03, -1.68728875e-03, -1.68728875e-03,
          -1.68728875e-03, 7.26891905e-02, -1.55561343e-01,
          -1.68728875e-03, -1.55561328e-01, -1.68728875e-03,
          -1.68728875e-03, -2.46660737e-03, -1.68728875e-03,
          -1.68728875e-03, -5.29671088e-03, -1.68728875e-03,
          -5.29671088e-03, -1.68728875e-03, -1.68728875e-03,
          -1.68728875e-03, -1.68728875e-03, -1.68728875e-03,
          -5.29671088e-03, -1.68728875e-03, -5.29671088e-03,
          -1.68728875e-03, -1.68728875e-03, -1.68728875e-03,
          -1.68728875e-03, -1.68728875e-03, -5.29671088e-03,
          -1.68728875e-03, -5.29671088e-03, -1.68728875e-03,
          -1.68728875e-03, -1.68728875e-03, -1.68728875e-03,
          -1.68728875e-03, -5.29671088e-03, -1.68728875e-03,
          -5.29671088e-03, -1.68728875e-03, -1.68728875e-03,
          -1.68728875e-03, -1.68728875e-03, -1.68728875e-03,
          -5.29671088e-03, -1.68728875e-03, -5.29671088e-03,
          -1.68728875e-03, -1.68728875e-03, -1.68728875e-03,
          -1.68728875e-03, -1.68728875e-03, -5.29671088e-03,
          -1.68728875e-03, -5.29671088e-03, -1.68728875e-03,
          -1.68728875e-03, -1.68728875e-03, -1.68728875e-03,
          -1.68728875e-03, -5.29671088e-03, -1.68728875e-03,
          -5.29671088e-03, -1.68728875e-03, -1.68728875e-03,
          -1.68728875e-03, -1.68728875e-03, -1.68728875e-03,
          -5.29671088e-03, -1.68728875e-03, -5.29671088e-03,
          -5.29671088e-03, -1.68728875e-03, -1.68728875e-03,
          -1.68728875e-03, -1.68728875e-03, -1.68728875e-03,
          -1.68728875e-03 ]
      - [ 1.29864346e-02, 1.81789190e-04, 2.76968926e-02,
          -4.72457185e-02, 1.81789190e-04, 1.81789190e-04,
          1.81789190e-04, -4.72457185e-02, 1.81789190e-04,
          1.81789190e-04, 1.81789190e-04, 1.81789190e-04, 6.88180625e-02,
          1.81789190e-04, 1.81789190e-04, -5.47089204e-02,
          1.81789190e-04, 1.81789190e-04, 1.81789190e-04, 1.39273470e-02,
          1.81789190e-04, -2.46872172e-01, 1.81789190e-04,
          1.81789190e-04, 1.81789190e-04, 1.81789190e-04, 1.81789190e-04,
          -4.72457185e-02, 4.99375999e-01, 1.81789190e-04,
          -4.72457185e-02, 1.81789190e-04, 1.81789190e-04,
          1.81789190e-04, 1.81789190e-04, -4.72457185e-02,
          3.84132005e-02, 1.81789190e-04, -4.72457185e-02,
          1.81789190e-04, 1.81789190e-04, 1.81789190e-04, 1.81789190e-04,
          1.81789190e-04, -8.64616111e-02, 1.81789190e-04,
          -4.72457185e-02, 1.81789190e-04, 1.81789190e-04,
          1.81789190e-04, 1.81789190e-04, 1.81789190e-04,
          -8.64616111e-02, 1.81789190e-04, -4.72457185e-02,
          1.81789190e-04, 1.81789190e-04, 1.81789190e-04, 1.81789190e-04,
          1.81789190e-04, -8.93317834e-02, 1.81789190e-04,
          -4.72457185e-02, 1.81789190e-04, 1.81789190e-04,
          1.81789190e-04, 1.81789190e-04, -4.72457185e-02,
          -8.93317834e-02, 1.81789190e-04, -4.72457185e-02,
          1.81789190e-04, 1.81789190e-04, 1.23708770e-01, 1.81789190e-04,
          -4.72457185e-02, 2.70329714e-01, 1.81789190e-04,
          -4.72457185e-02, 1.81789190e-04, 1.81789190e-04,
          1.81789190e-04, 1.81789190e-04, -4.72457185e-02,
          2.67459542e-01, 1.81789190e-04, -4.72457185e-02,
          -4.09513526e-02, 6.88180625e-02, 1.81789190e-04,
          1.81789190e-04, 1.81789190e-04, 1.81789190e-04, 1.81789190e-04 ]
      - [ 1.97768714e-02, -8.05684701e-02, -2.28936896e-02,
          -9.98965185e-03, -9.98965185e-03, -9.98965185e-03,
          -9.98965185e-03, -9.98965185e-03, -9.98965185e-03,
          -9.98965185e-03, -9.98965185e-03, -9.98965185e-03,
          -1.38745538e-03, -9.98965185e-03, -9.98965185e-03,
          -1.38745538e-03, -9.98965185e-03, -9.98965185e-03,
          -9.98965185e-03, 7.21474038e-03, -9.98965185e-03,
          -9.98965185e-03, -9.98965185e-03, -9.98965185e-03,
          -9.98965185e-03, 2.53729615e-02, -9.98965185e-03,
          -9.98965185e-03, 4.93230671e-01, -9.98965185e-03,
          -8.05684701e-02, -9.98965185e-03, -9.98965185e-03,
          -9.98965185e-03, -9.98965185e-03, -9.98965185e-03,
          3.28650884e-02, -9.98965185e-03, -8.05684701e-02,
          -9.98965185e-03, -9.98965185e-03, -9.98965185e-03,
          -9.98965185e-03, -9.98965185e-03, -9.11916867e-02,
          -9.98965185e-03, -8.05684701e-02, -9.98965185e-03,
          -9.98965185e-03, -9.98965185e-03, -9.98965185e-03,
          -9.98965185e-03, -9.11916867e-02, -9.98965185e-03,
          -8.05684701e-02, -9.98965185e-03, -9.98965185e-03,
          7.10206330e-01, -9.98965185e-03, -9.98965185e-03,
          -9.65357199e-02, -9.98965185e-03, -8.05684701e-02,
          -9.98965185e-03, -9.98965185e-03, -9.98965185e-03,
          -9.98965185e-03, -9.98965185e-03, -9.65357199e-02,
          -9.98965185e-03, -8.05684701e-02, -9.98965185e-03,
          -9.98965185e-03, -9.98965185e-03, -9.98965185e-03,
          -9.98965185e-03, 2.65719950e-01, -9.98965185e-03,
          -8.05684701e-02, -9.98965185e-03, -9.98965185e-03,
          -9.98965185e-03, -9.98965185e-03, -9.98965185e-03,
          2.60375887e-01, -9.98965185e-03, -8.05684701e-02,
          -7.83944689e-03, -1.38745538e-03, -9.98965185e-03,
          -9.98965185e-03, -9.98965185e-03, -9.98965185e-03,
          -9.98965185e-03 ]
      - [ 1.27026429e-02, -3.81485634e-02, 1.58880502e-01,
          1.37738534e-03, 1.37738534e-03, 1.37738534e-03, 1.37738534e-03,
          1.37738534e-03, 1.37738534e-03, 1.37738534e-03, 1.37738534e-03,
          1.37738534e-03, 5.09312227e-02, 1.37738534e-03, 1.37738534e-03,
          5.09312227e-02, 1.37738534e-03, 1.37738534e-03, 1.37738534e-03,
          1.00485057e-01, -4.41758297e-02, -1.94112271e-01,
          -4.11621965e-02, 1.37738534e-03, 1.37738534e-03,
          2.11403612e-02, 1.37738534e-03, 1.37738534e-03, 9.16134380e-03,
          1.37738534e-03, -4.11621965e-02, 1.37738534e-03,
          1.37738534e-03, 1.37738534e-03, 1.37738534e-03, 1.37738534e-03,
          9.16134380e-03, 1.37738534e-03, -4.11621965e-02,
          1.37738534e-03, 1.37738534e-03, 1.37738534e-03, 1.37738534e-03,
          1.37738534e-03, 9.16134380e-03, 1.37738534e-03,
          -4.11621965e-02, 1.37738534e-03, 1.37738534e-03,
          1.37738534e-03, 1.37738534e-03, 1.37738534e-03, 9.16134380e-03,
          1.37738534e-03, -4.11621965e-02, 1.37738534e-03,
          1.37738534e-03, 1.47170098e-02, 1.37738534e-03, 1.37738534e-03,
          9.16134380e-03, 1.37738534e-03, -4.11621965e-02,
          1.37738534e-03, 1.37738534e-03, 1.55724743e-02, 1.37738534e-03,
          1.37738534e-03, 9.16134380e-03, 1.37738534e-03,
          -4.11621965e-02, 1.37738534e-03, 1.37738534e-03,
          1.37738534e-03, 1.37738534e-03, 1.37738534e-03, 9.16134380e-03,
          1.37738534e-03, -4.11621965e-02, 1.37738534e-03,
          1.37738534e-03, 1.37738534e-03, 1.37738534e-03, 1.37738534e-03,
          9.16134380e-03, 1.37738534e-03, -4.11621965e-02,
          9.16134380e-03, 5.09312227e-02, 1.37738534e-03, 1.37738534e-03,
          1.37738534e-03, 1.37738534e-03, 1.37738534e-03 ]
      - [ 1.17552765e-02, -7.16637671e-01, 8.38944316e-02,
          -5.55470167e-03, -5.55470167e-03, -5.55470167e-03,
          -5.55470167e-03, -5.55470167e-03, -5.55470167e-03,
          -5.55470167e-03, -5.55470167e-03, -5.55470167e-03,
          2.71425396e-02, -5.55470167e-03, -5.55470167e-03,
          2.71425396e-02, -5.55470167e-03, -5.55470167e-03,
          -5.55470167e-03, 5.98397776e-02, -5.55470167e-03,
          -5.55470167e-03, -5.55470167e-03, -5.55470167e-03,
          -5.55470167e-03, 7.23077476e-01, -5.55470167e-03,
          -5.55470167e-03, 2.16380302e-02, -5.55470167e-03,
          -1.06362421e-02, -5.55470167e-03, -5.55470167e-03,
          -5.55470167e-03, -5.55470167e-03, -5.55470167e-03,
          1.95340253e-02, -5.55470167e-03, -1.06362421e-02,
          -5.55470167e-03, -5.55470167e-03, -5.55470167e-03,
          -5.55470167e-03, -5.55470167e-03, 1.39478976e-02,
          -5.55470167e-03, -1.06362421e-02, -5.55470167e-03,
          -5.55470167e-03, -5.55470167e-03, -5.55470167e-03,
          -5.55470167e-03, 1.39478976e-02, -5.55470167e-03,
          -1.06362421e-02, -5.55470167e-03, -5.55470167e-03,
          1.68744531e-02, -5.55470167e-03, -5.55470167e-03,
          1.02351671e-02, -5.55470167e-03, -1.06362421e-02,
          -5.55470167e-03, -5.55470167e-03, -5.55470167e-03,
          -5.55470167e-03, -5.55470167e-03, 1.02351671e-02,
          -5.55470167e-03, -1.06362421e-02, -5.55470167e-03,
          -5.55470167e-03, -5.55470167e-03, -5.55470167e-03,
          -5.55470167e-03, 2.16380544e-02, -5.55470167e-03,
          -1.06362421e-02, -5.55470167e-03, -5.55470167e-03,
          -5.55470167e-03, -5.55470167e-03, -5.55470167e-03,
          1.95345134e-02, -5.55470167e-03, -1.06362421e-02,
          7.18671232e-02, 2.71425396e-02, -5.55470167e-03,
          -5.55470167e-03, -5.55470167e-03, -5.55470167e-03,
          -5.55470167e-03 ]
      - [ 4.91076350e-01, -2.37316549e-01, -2.37995316e-03,
          -9.05512460e-03, -9.05512460e-03, -9.05512460e-03,
          -9.05512460e-03, -9.05512460e-03, -9.05512460e-03,
          -9.05512460e-03, -9.05512460e-03, -9.05512460e-03,
          6.77390322e-02, -9.05512460e-03, -9.05512460e-03,
          6.77390322e-02, -9.05512460e-03, -9.05512460e-03,
          -9.05512460e-03, 1.44533187e-01, -9.05512460e-03,
          -3.97197679e-02, -9.05512460e-03, -9.05512460e-03,
          -9.05512460e-03, 2.48897180e-01, -9.05512460e-03,
          -9.05512460e-03, 5.98702300e-03, -9.05512460e-03,
          -3.97197679e-02, -9.05512460e-03, -9.05512460e-03,
          -9.05512460e-03, -9.05512460e-03, -9.05512460e-03,
          5.09921163e-02, -9.05512460e-03, -3.97197679e-02,
          -9.05512460e-03, -9.05512460e-03, -9.05512460e-03,
          -9.05512460e-03, -9.05512460e-03, 5.09921163e-02,
          -9.05512460e-03, -3.97197679e-02, -9.05512460e-03,
          -9.05512460e-03, -9.05512460e-03, -9.05512460e-03,
          -9.05512460e-03, 5.09921163e-02, -9.05512460e-03,
          -3.97197679e-02, -9.05512460e-03, -9.05512460e-03,
          4.96721566e-01, -9.05512460e-03, -9.05512460e-03,
          -3.11005384e-01, -9.05512460e-03, -3.97197679e-02,
          -9.05512460e-03, -9.05512460e-03, -9.05512460e-03,
          -9.05512460e-03, -9.05512460e-03, -3.11005384e-01,
          -9.05512460e-03, -3.97197679e-02, -9.05512460e-03,
          -9.05512460e-03, -9.05512460e-03, -9.05512460e-03,
          -9.05512460e-03, 5.69663057e-03, -9.05512460e-03,
          -3.97197679e-02, -9.05512460e-03, -9.05512460e-03,
          -9.05512460e-03, -9.05512460e-03, -9.05512460e-03,
          5.69663057e-03, -9.05512460e-03, -3.97197679e-02,
          7.10766613e-02, 6.77390322e-02, -9.05512460e-03,
          -9.05512460e-03, -9.05512460e-03, -9.05512460e-03,
          -9.05512460e-03 ]
      - [ 8.62431899e-03, -6.64473604e-03, 2.26983577e-01,
          -1.32599607e-01, -6.64473604e-03, -6.64473604e-03,
          -6.64473604e-03, -6.64473604e-03, -6.64473604e-03,
          -6.64473604e-03, -6.64473604e-03, -6.64473604e-03,
          2.43476361e-01, -6.64473604e-03, -6.64473604e-03,
          2.43476361e-01, -6.64473604e-03, -6.64473604e-03,
          -6.64473604e-03, -1.26009256e-01, -6.64473604e-03,
          -6.98963255e-02, -6.64473604e-03, -6.64473604e-03,
          -6.64473604e-03, 5.76759828e-03, -6.64473604e-03,
          -6.64473604e-03, -2.42912956e-02, -6.64473604e-03,
          -6.64473604e-03, -6.64473604e-03, -6.64473604e-03,
          -6.64473604e-03, -6.64473604e-03, -6.64473604e-03,
          -2.56976970e-02, -6.64473604e-03, -6.64473604e-03,
          -6.64473604e-03, -6.64473604e-03, -6.64473604e-03,
          -6.64473604e-03, -6.64473604e-03, -2.56976970e-02,
          -6.64473604e-03, -6.64473604e-03, -6.64473604e-03,
          -6.64473604e-03, 6.14217622e-03, -6.64473604e-03,
          -6.64473604e-03, -1.32853631e-02, -6.64473604e-03,
          -6.64473604e-03, -6.64473604e-03, -6.64473604e-03,
          -6.64473604e-03, -6.64473604e-03, -6.64473604e-03,
          -1.32853631e-02, -6.64473604e-03, -6.64473604e-03,
          -6.64473604e-03, -6.64473604e-03, -6.64473604e-03,
          -6.64473604e-03, -6.64473604e-03, -1.58908293e-02,
          -6.64473604e-03, -6.64473604e-03, -6.64473604e-03,
          -6.64473604e-03, 8.93569272e-03, -6.64473604e-03,
          -6.64473604e-03, -2.42912956e-02, -6.64473604e-03,
          -6.64473604e-03, -6.64473604e-03, -6.64473604e-03,
          8.93569272e-03, -6.64473604e-03, -6.64473604e-03,
          -1.15043828e-02, -6.64473604e-03, -6.64473604e-03,
          -2.83031631e-02, 2.43476361e-01, -6.64473604e-03,
          -6.64473604e-03, -6.64473604e-03, -6.64473604e-03,
          -6.64473604e-03 ]
      - [ 1.41403889e-02, -2.15543821e-01, 1.37448952e-01,
          -1.04055405e-02, -1.04055405e-02, -1.04055405e-02,
          -1.04055405e-02, -1.04055405e-02, -1.04055405e-02,
          -1.04055405e-02, -1.04055405e-02, -1.04055405e-02,
          4.20234837e-02, -1.04055405e-02, -1.04055405e-02,
          4.20234837e-02, -1.04055405e-02, -1.04055405e-02,
          -1.04055405e-02, 9.44525003e-02, -1.04055405e-02,
          -1.04055405e-02, -1.04055405e-02, -1.04055405e-02,
          -1.04055405e-02, -1.04055405e-02, -1.04055405e-02,
          -1.04055405e-02, 2.60270461e-02, -1.04055405e-02,
          -1.04055405e-02, -1.04055405e-02, -1.04055405e-02,
          -1.04055405e-02, -1.04055405e-02, -1.04055405e-02,
          2.34980434e-02, -1.04055405e-02, -1.04055405e-02,
          -1.04055405e-02, -1.04055405e-02, -1.04055405e-02,
          -1.04055405e-02, -1.04055405e-02, 1.67784672e-02,
          -1.04055405e-02, -1.04055405e-02, -1.04055405e-02,
          -1.04055405e-02, -1.04055405e-02, -1.04055405e-02,
          -1.04055405e-02, 1.67784672e-02, -1.04055405e-02,
          -1.04055405e-02, -1.04055405e-02, -1.04055405e-02,
          4.74046409e-01, -1.04055405e-02, -1.04055405e-02,
          1.23115405e-02, -1.04055405e-02, -1.04055405e-02,
          -1.04055405e-02, -1.04055405e-02, -1.04055405e-02,
          -1.04055405e-02, -1.04055405e-02, 1.23115405e-02,
          -1.04055405e-02, -1.04055405e-02, -1.04055405e-02,
          -1.04055405e-02, -1.04055405e-02, -1.04055405e-02,
          -1.04055405e-02, 2.60270722e-02, -1.04055405e-02,
          -1.04055405e-02, -1.04055405e-02, -1.04055405e-02,
          -1.04055405e-02, -1.04055405e-02, -1.04055405e-02,
          2.34979987e-02, -1.04055405e-02, -1.04055405e-02,
          1.33816069e-02, 4.20234837e-02, -1.04055405e-02,
          -1.04055405e-02, -1.04055405e-02, -1.04055405e-02,
          -1.04055405e-02 ]
      - [ .Nan, .Nan, .Nan, .Nan, .Nan, .Nan, .Nan, .Nan, .Nan, .Nan,
          .Nan, .Nan, .Nan, .Nan, .Nan, .Nan, .Nan, .Nan, .Nan, .Nan,
          .Nan, .Nan, .Nan, .Nan, .Nan, .Nan, .Nan, .Nan, .Nan, .Nan,
          .Nan, .Nan, .Nan, .Nan, .Nan, .Nan, .Nan, .Nan, .Nan, .Nan,
          .Nan, .Nan, .Nan, .Nan, .Nan, .Nan, .Nan, .Nan, .Nan, .Nan,
          .Nan, .Nan, .Nan, .Nan, .Nan, .Nan, .Nan, .Nan, .Nan, .Nan,
          .Nan, .Nan, .Nan, .Nan, .Nan, .Nan, .Nan, .Nan, .Nan, .Nan,
          .Nan, .Nan, .Nan, .Nan, .Nan, .Nan, .Nan, .Nan, .Nan, .Nan,
          .Nan, .Nan, .Nan, .Nan, .Nan, .Nan, .Nan, -9.83476639e-03,
          6.78975135e-02, -7.72843021e-04, -7.72843021e-04,
          -7.72843021e-04, -7.72843021e-04, -7.72843021e-04 ]
      - [ 2.01882645e-02, -1.52073398e-01, 2.00919360e-01,
          3.48011474e-03, 3.48011474e-03, 3.48011474e-03, 3.48011474e-03,
          3.48011474e-03, 3.48011474e-03, 3.48011474e-03, 3.48011474e-03,
          3.48011474e-03, 6.65740222e-02, 3.48011474e-03, 3.48011474e-03,
          6.65740222e-02, 3.48011474e-03, 3.48011474e-03, 3.48011474e-03,
          1.29667923e-01, 3.48011474e-03, 3.48011474e-03,
          -1.52073398e-01, 3.48011474e-03, 3.48011474e-03,
          3.48011474e-03, 3.48011474e-03, 3.48011474e-03, 3.71591933e-02,
          3.48011474e-03, -9.00871530e-02, 3.48011474e-03,
          3.48011474e-03, 3.48011474e-03, 3.48011474e-03, 3.48011474e-03,
          3.35477777e-02, 3.48011474e-03, -9.00871530e-02,
          3.48011474e-03, 3.48011474e-03, 3.48011474e-03, 3.48011474e-03,
          3.48011474e-03, 2.39547770e-02, 3.48011474e-03,
          -9.00871530e-02, 3.48011474e-03, 3.48011474e-03,
          3.48011474e-03, 3.48011474e-03, 3.48011474e-03, 2.39547770e-02,
          3.48011474e-03, -9.00871530e-02, 3.48011474e-03,
          3.48011474e-03, 3.48011474e-03, 3.48011474e-03, 3.48011474e-03,
          1.75774824e-02, 3.48011474e-03, -9.00871530e-02,
          3.48011474e-03, 3.48011474e-03, 3.48011474e-03, 3.48011474e-03,
          3.48011474e-03, 1.75774824e-02, 3.48011474e-03,
          -9.00871530e-02, 3.48011474e-03, 3.48011474e-03,
          3.48011474e-03, 3.48011474e-03, 3.48011474e-03, 3.71592306e-02,
          3.48011474e-03, -9.00871530e-02, 3.48011474e-03,
          3.48011474e-03, 3.48011474e-03, 3.48011474e-03, 3.48011474e-03,
          3.35477591e-02, 3.48011474e-03, -9.00871530e-02,
          9.74012539e-03, 6.65740222e-02, 3.48011474e-03, 3.48011474e-03,
          3.48011474e-03, 3.48011474e-03, 3.48011474e-03 ]
      - [ 8.18476360e-03, 1.74194016e-03, 1.50809661e-01, 1.74194016e-03,
          1.74194016e-03, 1.74194016e-03, 1.74194016e-03, 1.74194016e-03,
          1.74194016e-03, 1.74194016e-03, 1.74194016e-03, 1.74194016e-03,
          4.79198098e-02, 1.74194016e-03, 1.74194016e-03, 4.79198098e-02,
          1.74194016e-03, 1.74194016e-03, 1.74194016e-03, 9.40976813e-02,
          -2.04128712e-01, 1.74194016e-03, -5.74186258e-02,
          1.74194016e-03, 1.74194016e-03, 4.02526930e-02, 1.74194016e-03,
          1.74194016e-03, 9.19343811e-03, 1.74194016e-03,
          -4.70937155e-02, 1.74194016e-03, 1.74194016e-03,
          1.74194016e-03, 1.74194016e-03, 1.74194016e-03, 9.19343811e-03,
          1.74194016e-03, -4.70937155e-02, 1.74194016e-03,
          1.74194016e-03, 1.74194016e-03, 1.74194016e-03, 1.74194016e-03,
          9.19343811e-03, 1.74194016e-03, -4.70937155e-02,
          1.74194016e-03, 1.74194016e-03, 1.74194016e-03, 1.74194016e-03,
          1.74194016e-03, 9.19343811e-03, 1.74194016e-03,
          -4.70937155e-02, 1.74194016e-03, 1.74194016e-03,
          1.74194016e-03, 1.74194016e-03, 1.74194016e-03, 9.19343811e-03,
          1.74194016e-03, -4.70937155e-02, 1.74194016e-03,
          1.74194016e-03, 1.74194016e-03, 1.74194016e-03, 1.74194016e-03,
          9.19343811e-03, 1.74194016e-03, -4.70937155e-02,
          1.74194016e-03, 1.74194016e-03, 1.74194016e-03, 1.74194016e-03,
          1.74194016e-03, 9.19343811e-03, 1.74194016e-03,
          -4.70937155e-02, 1.74194016e-03, 1.74194016e-03,
          1.74194016e-03, 1.74194016e-03, 1.74194016e-03, 9.19343811e-03,
          1.74194016e-03, -4.70937155e-02, 9.19343811e-03,
          4.79198098e-02, 1.74194016e-03, 1.74194016e-03, 1.74194016e-03,
          1.74194016e-03, 1.74194016e-03 ]
      - [ -3.93578857e-02, 7.92654604e-02, 5.77337503e-01,
          1.55236930e-01, -3.93578857e-02, -3.93578857e-02,
          -3.93578857e-02, 1.55236930e-01, -3.93578857e-02,
          -3.93578857e-02, -3.93578857e-02, -3.93578857e-02,
          -3.93578857e-02, -3.93578857e-02, -3.93578857e-02,
          2.64913380e-01, -3.93578857e-02, -3.93578857e-02,
          -3.93578857e-02, 2.64913380e-01, -3.93578857e-02,
          5.69184661e-01, -3.93578857e-02, -3.93578857e-02,
          -3.93578857e-02, -3.93578857e-02, -3.93578857e-02,
          1.55236930e-01, -2.83933412e-02, -3.93578857e-02,
          8.87128618e-03, -3.93578857e-02, -3.93578857e-02,
          -3.93578857e-02, -3.93578857e-02, 1.55236930e-01,
          -2.83933412e-02, -3.93578857e-02, 8.87128618e-03,
          -3.93578857e-02, -3.93578857e-02, -3.93578857e-02,
          -3.93578857e-02, -3.93578857e-02, -2.83933412e-02,
          -3.93578857e-02, 8.87128618e-03, -3.93578857e-02,
          -3.93578857e-02, -3.93578857e-02, -3.93578857e-02,
          -3.93578857e-02, -2.83933412e-02, -3.93578857e-02,
          8.87128618e-03, -3.93578857e-02, -3.93578857e-02,
          4.13808644e-01, -3.93578857e-02, -3.93578857e-02,
          -2.83933412e-02, -3.93578857e-02, 8.87128618e-03,
          -3.93578857e-02, -3.93578857e-02, -3.93578857e-02,
          -3.93578857e-02, 1.55236930e-01, -2.83933412e-02,
          -3.93578857e-02, 8.87128618e-03, -3.93578857e-02,
          -3.93578857e-02, -3.43629181e-01, -3.93578857e-02,
          1.55236930e-01, -2.83933412e-02, -3.93578857e-02,
          8.87128618e-03, -3.93578857e-02, -3.93578857e-02,
          -3.93578857e-02, -3.93578857e-02, 1.55236930e-01,
          -2.83933412e-02, -3.93578857e-02, 8.87128618e-03,
          -2.76729047e-01, -3.93578857e-02, -3.93578857e-02,
          -3.93578857e-02, -3.93578857e-02, -3.93578857e-02,
          -3.93578857e-02 ]
      - [ -2.19504386e-02, -4.28621769e-02, 1.10195920e-01,
          6.50344789e-02, -7.45076919e-04, -7.45076919e-04,
          -7.45076919e-04, 6.50344789e-02, -7.45076919e-04,
          -7.45076919e-04, -7.45076919e-04, -7.45076919e-04,
          -7.45076919e-04, -7.45076919e-04, -7.45076919e-04,
          2.63482273e-01, -7.45076919e-04, -7.45076919e-04,
          -7.45076919e-04, 2.01320261e-01, -6.29070774e-02,
          -1.24045819e-01, -1.24045946e-01, -7.45076919e-04,
          -7.45076919e-04, 2.04602834e-02, -7.45076919e-04,
          6.50344789e-02, -2.71853134e-02, -7.45076919e-04,
          -1.83328800e-02, -7.45076919e-04, -7.45076919e-04,
          -7.45076919e-04, -7.45076919e-04, 6.50344789e-02,
          -2.71853134e-02, -7.45076919e-04, -1.83328800e-02,
          -7.45076919e-04, -7.45076919e-04, -7.45076919e-04,
          -7.45076919e-04, -7.45076919e-04, -2.71853134e-02,
          -7.45076919e-04, -1.83328800e-02, -7.45076919e-04,
          -7.45076919e-04, -7.45076919e-04, -7.45076919e-04,
          -7.45076919e-04, -2.71853134e-02, -7.45076919e-04,
          -1.83328800e-02, -7.45076919e-04, -7.45076919e-04,
          -7.45076919e-04, -7.45076919e-04, -7.45076919e-04,
          -2.71853134e-02, -7.45076919e-04, -1.83328800e-02,
          -7.45076919e-04, -7.45076919e-04, 2.50806045e-02,
          -7.45076919e-04, 6.50344789e-02, -2.71853134e-02,
          -7.45076919e-04, -1.83328800e-02, -7.45076919e-04,
          -7.45076919e-04, -2.64972419e-01, -7.45076919e-04,
          6.50344789e-02, -2.71853134e-02, -7.45076919e-04,
          -1.83328800e-02, -7.45076919e-04, -7.45076919e-04,
          -7.45076919e-04, -7.45076919e-04, 6.50344789e-02,
          -2.71853134e-02, -7.45076919e-04, -1.83328800e-02,
          -2.68916935e-02, -7.45076919e-04, -7.45076919e-04,
          -7.45076919e-04, -7.45076919e-04, -7.45076919e-04,
          -7.45076919e-04 ]
      - [ -1.54336253e-02, -5.22734504e-03, -1.98030844e-02,
          1.24168202e-01, -3.25423898e-03, -3.25423898e-03,
          -3.25423898e-03, 1.24168202e-01, -3.25423898e-03,
          -3.25423898e-03, -3.25423898e-03, -3.25423898e-03,
          -3.25423898e-03, -3.25423898e-03, -3.25423898e-03,
          9.68556106e-02, -3.25423898e-03, -3.25423898e-03,
          -3.25423898e-03, 9.68556106e-02, -3.25423898e-03,
          1.96965456e-01, -3.25423898e-03, -3.25423898e-03,
          -3.25423898e-03, 5.91568602e-03, -3.25423898e-03,
          1.24168202e-01, -9.65205058e-02, -3.25423898e-03,
          -1.97981019e-02, -3.25423898e-03, -3.25423898e-03,
          -3.25423898e-03, -3.25423898e-03, 1.24168202e-01,
          -9.65205058e-02, -3.25423898e-03, -1.97981019e-02,
          -3.25423898e-03, -3.25423898e-03, -3.25423898e-03,
          -3.25423898e-03, -3.25423898e-03, -9.65205058e-02,
          -3.25423898e-03, -1.97981019e-02, -3.25423898e-03,
          -3.25423898e-03, -3.25423898e-03, -3.25423898e-03,
          -3.25423898e-03, -9.65205058e-02, -3.25423898e-03,
          -1.97981019e-02, -3.25423898e-03, -3.25423898e-03,
          2.54165214e-02, -3.25423898e-03, -3.25423898e-03,
          -9.65205058e-02, -3.25423898e-03, -1.97981019e-02,
          -3.25423898e-03, -3.25423898e-03, -3.25423898e-03,
          -3.25423898e-03, 1.24168202e-01, -9.65205058e-02,
          -3.25423898e-03, -1.97981019e-02, -3.25423898e-03,
          -3.25423898e-03, -1.03364095e-01, -3.25423898e-03,
          1.24168202e-01, -9.65205058e-02, -3.25423898e-03,
          -1.97981019e-02, -3.25423898e-03, -3.25423898e-03,
          -3.25423898e-03, -3.25423898e-03, 1.24168202e-01,
          -9.65205058e-02, -3.25423898e-03, -1.97981019e-02,
          -1.83006506e-02, -3.25423898e-03, -3.25423898e-03,
          -3.25423898e-03, -3.25423898e-03, -3.25423898e-03,
          -3.25423898e-03 ]
      - [ -7.95907713e-03, -1.20117664e-02, -8.86698365e-02,
          1.36226952e-01, -7.95907713e-03, -7.95907713e-03,
          -7.95907713e-03, 1.36226952e-01, -7.95907713e-03,
          -7.95907713e-03, -7.95907713e-03, -7.95907713e-03,
          -7.95907713e-03, -7.95907713e-03, -7.95907713e-03,
          1.70464337e-01, -7.95907713e-03, -7.95907713e-03,
          -7.95907713e-03, 1.70464337e-01, -7.95907713e-03,
          5.63090714e-03, -7.95907713e-03, -7.95907713e-03,
          -7.95907713e-03, 1.35915345e-02, -7.95907713e-03,
          1.36226952e-01, -1.36017025e-01, -7.95907713e-03,
          -3.54014598e-02, -7.95907713e-03, -7.95907713e-03,
          -7.95907713e-03, -7.95907713e-03, 1.36226952e-01,
          -4.37661372e-02, -7.95907713e-03, -3.54014598e-02,
          -7.95907713e-03, -7.95907713e-03, -7.95907713e-03,
          -7.95907713e-03, -7.95907713e-03, -4.37661372e-02,
          -7.95907713e-03, -3.54014598e-02, -7.95907713e-03,
          -7.95907713e-03, -7.95907713e-03, -7.95907713e-03,
          -7.95907713e-03, -4.37661372e-02, -7.95907713e-03,
          -3.54014598e-02, -7.95907713e-03, -7.95907713e-03,
          5.17087638e-01, -7.95907713e-03, -7.95907713e-03,
          -1.36017025e-01, -7.95907713e-03, -3.54014598e-02,
          -7.95907713e-03, -7.95907713e-03, -7.95907713e-03,
          -7.95907713e-03, 1.36226952e-01, -1.36017025e-01,
          -7.95907713e-03, -3.54014598e-02, -7.95907713e-03,
          -7.95907713e-03, -1.86382502e-01, -7.95907713e-03,
          1.36226952e-01, -1.36017025e-01, -7.95907713e-03,
          -3.54014598e-02, -7.95907713e-03, -7.95907713e-03,
          -7.95907713e-03, -7.95907713e-03, 1.36226952e-01,
          -1.36017025e-01, -7.95907713e-03, -3.54014598e-02,
          4.42947783e-02, -7.95907713e-03, -7.95907713e-03,
          -7.95907713e-03, -7.95907713e-03, -7.95907713e-03,
          -7.95907713e-03 ]
      - [ -2.33389414e-03, -2.33389414e-03, 1.46352336e-01,
          -1.59342006e-01, -2.33389414e-03, -2.33389414e-03,
          -2.33389414e-03, 4.63617519e-02, -2.33389414e-03,
          -2.33389414e-03, -2.33389414e-03, -2.33389414e-03,
          -2.33389414e-03, -2.33389414e-03, -2.33389414e-03,
          4.25949752e-01, -2.33389414e-03, -2.33389414e-03,
          -2.33389414e-03, 4.25534468e-04, -2.33389414e-03,
          3.18491575e-03, -2.33389414e-03, -2.33389414e-03,
          -2.33389414e-03, -2.79813595e-02, -2.33389414e-03,
          4.63617519e-02, -6.65544271e-02, -2.33389414e-03,
          4.63617519e-02, -2.33389414e-03, -2.33389414e-03,
          -2.33389414e-03, -2.33389414e-03, 4.63617519e-02,
          -6.65544271e-02, -2.33389414e-03, 4.63617519e-02,
          -2.33389414e-03, -2.33389414e-03, -2.33389414e-03,
          -2.33389414e-03, -2.33389414e-03, -6.65544271e-02,
          -2.33389414e-03, 4.63617519e-02, -2.33389414e-03,
          -2.33389414e-03, -2.33389414e-03, -2.33389414e-03,
          -2.33389414e-03, -6.65544271e-02, -2.33389414e-03,
          4.63617519e-02, -2.33389414e-03, -2.33389414e-03,
          -2.33389414e-03, -2.33389414e-03, -2.33389414e-03,
          -6.65544271e-02, -2.33389414e-03, 4.63617519e-02,
          -2.33389414e-03, -2.33389414e-03, -2.33389414e-03,
          -2.33389414e-03, 4.63617519e-02, -6.65544271e-02,
          -2.33389414e-03, 4.63617519e-02, -2.33389414e-03,
          -2.33389414e-03, -3.14941943e-01, -2.33389414e-03,
          4.63617519e-02, -6.65544271e-02, -2.33389414e-03,
          4.63617519e-02, -2.33389414e-03, -2.33389414e-03,
          -2.33389414e-03, -2.33389414e-03, 4.63617519e-02,
          -6.65544271e-02, -2.33389414e-03, 4.63617519e-02,
          -4.09069620e-02, -2.33389414e-03, -2.33389414e-03,
          -2.33389414e-03, -2.33389414e-03, -2.33389414e-03,
          -2.33389414e-03 ]
      - [ -1.70425568e-02, 1.78887192e-02, 1.18652485e-01,
          4.04256843e-02, -1.70425568e-02, -1.70425568e-02,
          -1.70425568e-02, 4.04256843e-02, -1.70425568e-02,
          -1.70425568e-02, -1.70425568e-02, -1.70425568e-02,
          -1.70425568e-02, -1.70425568e-02, -1.70425568e-02,
          1.01101123e-01, -1.70425568e-02, -1.70425568e-02,
          -1.70425568e-02, 1.01101123e-01, -1.70425568e-02,
          2.19244808e-01, -1.70425568e-02, -1.70425568e-02,
          -1.70425568e-02, -2.02406645e-02, -1.70425568e-02,
          4.04256843e-02, -4.95491959e-02, -1.70425568e-02,
          4.04256843e-02, -1.70425568e-02, -1.70425568e-02,
          -1.70425568e-02, -1.70425568e-02, 4.04256843e-02,
          -4.95491959e-02, -1.70425568e-02, 4.04256843e-02,
          -1.70425568e-02, -1.70425568e-02, -1.70425568e-02,
          -1.70425568e-02, -1.70425568e-02, -4.95491959e-02,
          -1.70425568e-02, 4.04256843e-02, -1.70425568e-02,
          -1.70425568e-02, -1.70425568e-02, -1.70425568e-02,
          -1.70425568e-02, -4.95491959e-02, -1.70425568e-02,
          4.04256843e-02, -1.70425568e-02, -1.70425568e-02,
          4.83255446e-01, -1.70425568e-02, -1.70425568e-02,
          -4.95491959e-02, -1.70425568e-02, 4.04256843e-02,
          -1.70425568e-02, -1.70425568e-02, -1.70425568e-02,
          -1.70425568e-02, 4.04256843e-02, -4.95491959e-02,
          -1.70425568e-02, 4.04256843e-02, -1.70425568e-02,
          -1.70425568e-02, -1.35186240e-01, -1.70425568e-02,
          4.04256843e-02, -4.95491959e-02, -1.70425568e-02,
          4.04256843e-02, -1.70425568e-02, -1.70425568e-02,
          -1.70425568e-02, -1.70425568e-02, 4.04256843e-02,
          -4.95491959e-02, -1.70425568e-02, 4.04256843e-02,
          -3.91698927e-02, -1.70425568e-02, -1.70425568e-02,
          -1.70425568e-02, -1.70425568e-02, -1.70425568e-02,
          -1.70425568e-02 ]
      - [ .Nan, .Nan, .Nan, .Nan, .Nan, .Nan, .Nan, .Nan, .Nan, .Nan,
          .Nan, .Nan, .Nan, .Nan, .Nan, .Nan, .Nan, .Nan, .Nan, .Nan,
          .Nan, .Nan, .Nan, .Nan, .Nan, .Nan, .Nan, .Nan, .Nan, .Nan,
          .Nan, .Nan, .Nan, .Nan, .Nan, .Nan, .Nan, .Nan, .Nan, .Nan,
          .Nan, .Nan, .Nan, .Nan, .Nan, .Nan, .Nan, .Nan, .Nan, .Nan,
          .Nan, .Nan, .Nan, .Nan, .Nan, .Nan, .Nan, .Nan, .Nan, .Nan,
          .Nan, .Nan, .Nan, .Nan, .Nan, .Nan, .Nan, .Nan, .Nan, .Nan,
          .Nan, .Nan, .Nan, .Nan, .Nan, .Nan, .Nan, .Nan, .Nan, .Nan,
          .Nan, .Nan, .Nan, .Nan, .Nan, .Nan, .Nan, 1.42317088e-02,
          3.40994191e-03, 3.40994191e-03, 3.40994191e-03, 3.40994191e-03,
          3.40994191e-03, 3.40994191e-03 ]
      - [ -1.10334391e-02, 6.19269488e-03, 6.66749254e-02,
          1.38446555e-01, -4.47159214e-03, -4.47159214e-03,
          -4.47159214e-03, 1.38446555e-01, -4.47159214e-03,
          -4.47159214e-03, -4.47159214e-03, -4.47159214e-03,
          -4.47159214e-03, -4.47159214e-03, -4.47159214e-03,
          1.94348902e-01, -4.47159214e-03, -4.47159214e-03,
          -4.47159214e-03, 1.94348902e-01, -4.47159214e-03,
          6.90956786e-02, -4.44959626e-02, -4.47159214e-03,
          -4.47159214e-03, -7.00682402e-03, -4.47159214e-03,
          1.38446555e-01, -6.84514716e-02, -4.47159214e-03,
          -4.36024927e-02, -4.47159214e-03, -4.47159214e-03,
          -4.47159214e-03, -4.47159214e-03, 1.38446555e-01,
          -6.84514716e-02, -4.47159214e-03, -4.36024927e-02,
          -4.47159214e-03, -4.47159214e-03, -4.47159214e-03,
          -4.47159214e-03, -4.47159214e-03, -6.84514716e-02,
          -4.47159214e-03, -4.36024927e-02, -4.47159214e-03,
          -4.47159214e-03, -4.47159214e-03, -4.47159214e-03,
          -4.47159214e-03, -6.84514716e-02, -4.47159214e-03,
          -4.36024927e-02, -4.47159214e-03, -4.47159214e-03,
          -4.47159214e-03, -4.47159214e-03, -4.47159214e-03,
          -6.84514716e-02, -4.47159214e-03, -4.36024927e-02,
          -4.47159214e-03, -4.47159214e-03, -4.47159214e-03,
          -4.47159214e-03, 1.38446555e-01, -6.84514716e-02,
          -4.47159214e-03, -4.36024927e-02, -4.47159214e-03,
          -4.47159214e-03, -2.03292102e-01, -4.47159214e-03,
          1.38446555e-01, -6.84514716e-02, -4.47159214e-03,
          -4.36024927e-02, -4.47159214e-03, -4.47159214e-03,
          -4.47159214e-03, -4.47159214e-03, 1.38446555e-01,
          -6.84514716e-02, -4.47159214e-03, -4.36024927e-02,
          -6.47596419e-02, -4.47159214e-03, -4.47159214e-03,
          -4.47159214e-03, -4.47159214e-03, -4.47159214e-03,
          -4.47159214e-03 ]
      - [ -8.86011720e-02, -1.44095579e-03, 1.04284987e-01,
          5.36718443e-02, -1.44095579e-03, -1.44095579e-03,
          -1.44095579e-03, 5.36718443e-02, -1.44095579e-03,
          -1.44095579e-03, -1.44095579e-03, -1.44095579e-03,
          -1.44095579e-03, -1.44095579e-03, -1.44095579e-03,
          6.03838265e-02, -1.44095579e-03, -1.44095579e-03,
          -1.44095579e-03, 6.03838265e-02, -1.53595954e-01,
          1.22208603e-01, -1.11623012e-01, -1.44095579e-03,
          -1.44095579e-03, 1.14986040e-02, -1.44095579e-03,
          5.36718443e-02, -1.56718995e-02, -1.44095579e-03,
          -1.21089146e-02, -1.44095579e-03, -1.44095579e-03,
          -1.44095579e-03, -1.44095579e-03, 5.36718443e-02,
          -1.56718995e-02, -1.44095579e-03, -1.21089146e-02,
          -1.44095579e-03, -1.44095579e-03, -1.44095579e-03,
          -1.44095579e-03, -1.44095579e-03, -1.56718995e-02,
          -1.44095579e-03, -1.21089146e-02, -1.44095579e-03,
          -1.44095579e-03, -1.44095579e-03, -1.44095579e-03,
          -1.44095579e-03, -1.56718995e-02, -1.44095579e-03,
          -1.21089146e-02, -1.44095579e-03, -1.44095579e-03,
          -1.44095579e-03, -1.44095579e-03, -1.44095579e-03,
          -1.56718995e-02, -1.44095579e-03, -1.21089146e-02,
          -1.44095579e-03, -1.44095579e-03, -1.44095579e-03,
          -1.44095579e-03, 5.36718443e-02, -1.56718995e-02,
          -1.44095579e-03, -1.21089146e-02, -1.44095579e-03,
          -1.44095579e-03, -6.32657409e-02, -1.44095579e-03,
          5.36718443e-02, -1.56718995e-02, -1.44095579e-03,
          -1.21089146e-02, -1.44095579e-03, -1.44095579e-03,
          -1.44095579e-03, -1.44095579e-03, 5.36718443e-02,
          -1.56718995e-02, -1.44095579e-03, -1.21089146e-02,
          -7.23199965e-03, -1.44095579e-03, -1.44095579e-03,
          -1.44095579e-03, -1.44095579e-03, -1.44095579e-03,
          -1.44095579e-03 ]
      - [ 8.03444907e-03, -1.13015413e-01, 3.17399353e-01,
          8.39931425e-03, 8.39931425e-03, 8.39931425e-03, 8.39931425e-03,
          8.39931425e-03, 8.39931425e-03, 8.39931425e-03, 8.39931425e-03,
          8.39931425e-03, 8.39931425e-03, 8.39931425e-03, 8.39931425e-03,
          8.39931425e-03, 8.39931425e-03, 8.39931425e-03, 8.39931425e-03,
          8.39931425e-03, -4.72552180e-02, -2.38437146e-01,
          -2.66264409e-01, 8.39931425e-03, 8.39931425e-03,
          8.76419246e-03, 8.39931425e-03, 8.39931425e-03,
          -1.97928157e-02, 8.39931425e-03, -1.97928157e-02,
          8.39931425e-03, 8.39931425e-03, 8.39931425e-03, 8.39931425e-03,
          8.39931425e-03, -1.97928157e-02, 8.39931425e-03,
          -1.97928157e-02, 8.39931425e-03, 8.39931425e-03,
          8.39931425e-03, 8.39931425e-03, 8.39931425e-03,
          -1.97928157e-02, 8.39931425e-03, -1.97928157e-02,
          8.39931425e-03, 8.39931425e-03, 8.39931425e-03, 8.39931425e-03,
          8.39931425e-03, -1.97928157e-02, 8.39931425e-03,
          -1.97928157e-02, 8.39931425e-03, 8.39931425e-03,
          2.48060524e-02, 8.39931425e-03, 8.39931425e-03,
          -1.97928157e-02, 8.39931425e-03, -1.97928157e-02,
          8.39931425e-03, 8.39931425e-03, 8.39931425e-03, 8.39931425e-03,
          8.39931425e-03, -1.97928157e-02, 8.39931425e-03,
          -1.97928157e-02, 8.39931425e-03, 8.39931425e-03,
          8.39931425e-03, 8.39931425e-03, 8.39931425e-03,
          -1.97928157e-02, 8.39931425e-03, -1.97928157e-02,
          8.39931425e-03, 8.39931425e-03, 8.39931425e-03, 8.39931425e-03,
          8.39931425e-03, -1.97928157e-02, 8.39931425e-03,
          -1.97928157e-02, 4.31004763e-02, 8.39931425e-03,
          8.39931425e-03, 8.39931425e-03, 8.39931425e-03, 8.39931425e-03,
          8.39931425e-03 ]
      - [ -3.07168458e-02, -9.51139908e-03, 7.36112660e-03,
          2.21695136e-02, 2.21695136e-02, 2.21695136e-02, 2.21695136e-02,
          2.21695136e-02, 2.21695136e-02, 2.21695136e-02, 2.21695136e-02,
          2.21695136e-02, 2.21695136e-02, 2.21695136e-02, 2.21695136e-02,
          2.21695136e-02, 2.21695136e-02, 2.21695136e-02, 2.21695136e-02,
          2.21695136e-02, 2.21695136e-02, 2.21695136e-02, 2.21695136e-02,
          2.21695136e-02, 2.21695136e-02, 2.98329853e-02, 2.21695136e-02,
          2.21695136e-02, -1.11085415e-01, 2.21695136e-02,
          -2.68756431e-02, 2.21695136e-02, 2.21695136e-02,
          2.21695136e-02, 2.21695136e-02, 2.21695136e-02,
          -1.11085415e-01, 2.21695136e-02, -2.68756431e-02,
          2.21695136e-02, 2.21695136e-02, 2.21695136e-02, 2.21695136e-02,
          2.21695136e-02, -1.11085415e-01, 2.21695136e-02,
          -2.68756431e-02, 2.21695136e-02, 2.21695136e-02,
          2.21695136e-02, 2.21695136e-02, 2.21695136e-02,
          -1.11085415e-01, 2.21695136e-02, -2.68756431e-02,
          2.21695136e-02, 2.21695136e-02, -1.84604257e-01,
          2.21695136e-02, 2.21695136e-02, -1.11085415e-01,
